3772 100
</s> 0.004003 0.004419 -0.003830 -0.003278 0.001367 0.003021 0.000941 0.000211 -0.003604 0.002218 -0.004356 0.001250 -0.000751 -0.000957 -0.003316 -0.001882 0.002579 0.003025 0.002969 0.001597 0.001545 -0.003803 -0.004096 0.004970 0.003801 0.003090 -0.000604 0.004016 -0.000495 0.000735 -0.000149 -0.002983 0.001312 -0.001337 -0.003825 0.004754 0.004379 -0.001095 -0.000226 0.000509 -0.003638 -0.004007 0.004555 0.000063 -0.002582 -0.003042 -0.003076 0.001697 0.000201 0.001331 -0.004214 -0.003808 -0.000130 0.001144 0.002550 -0.003170 0.004080 0.000927 0.001120 -0.000608 0.002986 -0.002288 -0.002097 0.002158 -0.000753 0.001031 0.001805 -0.004089 -0.001983 0.002914 0.004232 0.003932 -0.003047 -0.002108 -0.000909 0.002001 -0.003788 0.002998 0.002788 -0.001599 -0.001552 -0.002238 0.004229 0.003912 -0.001180 0.004215 0.004820 0.001815 0.004983 -0.003111 -0.001532 -0.002107 -0.002907 0.002815 0.001579 0.000425 -0.002194 0.001524 0.003059 0.000194 
甘草 -0.033940 -0.149450 -0.342151 0.803352 0.615200 0.317171 -1.597394 0.207133 -0.026184 -0.727774 0.966920 -0.609849 1.140059 0.988621 -0.442499 -0.096352 0.419374 0.461047 -0.986790 -0.425437 -0.880587 -0.856419 1.627299 1.016535 1.013815 -0.361857 0.356489 -0.113763 0.448931 -0.095612 0.443126 -0.486933 -0.569535 -0.619055 0.448465 0.373404 0.007074 0.633727 -0.483488 -0.761188 -1.079517 0.930893 -0.775851 0.007825 -0.992401 0.774451 -0.484720 -0.417628 0.843504 1.888137 -0.070255 0.217498 0.651872 0.914368 0.226974 -0.957472 0.533634 -0.624543 -0.110202 -0.177294 -1.020333 -1.428713 0.450865 -0.402384 -0.163422 0.605607 0.632228 0.678911 -0.590704 0.439295 0.175340 -0.633411 -0.556553 -0.123966 0.834651 -0.675486 0.251898 -0.652088 0.248821 1.558015 0.752234 0.934385 0.395155 0.217384 0.454601 0.209321 0.972587 0.327984 -0.339528 0.091265 0.305352 0.466567 -0.649545 -0.278279 -0.651101 0.531933 -1.192339 1.010900 -1.166035 0.153108 
当归 -1.029975 0.859980 1.340918 0.912593 0.378631 0.023479 0.711675 0.483373 -0.857901 -0.664971 -0.698564 -2.647138 1.001370 1.380522 -1.521637 0.279440 1.379149 0.130095 -0.298698 1.331779 -0.511309 0.780451 0.957463 0.972438 1.064280 0.467475 -0.345457 0.142029 -0.635808 0.764153 0.677800 0.475219 -0.025817 0.002448 -0.764059 0.840661 -1.340992 1.394481 -0.041392 0.248524 -0.546015 0.122741 0.446354 0.501059 0.350083 -0.549865 -0.724835 -0.327121 0.549344 -0.314419 0.086986 0.461890 1.415804 0.020659 0.824220 -0.555400 -0.914966 -0.598879 0.613870 -0.293659 0.516368 -0.717815 -0.944520 -0.758682 0.077551 0.286580 -0.236113 0.484297 0.728244 0.226525 -0.857035 0.830136 -1.094939 -0.125623 0.702625 -1.408478 0.399210 0.960044 -0.261372 0.248249 1.733217 0.342459 1.004023 1.570202 0.508831 0.491764 -0.621260 0.146687 -0.320121 0.876993 -0.525110 1.285381 -0.769320 -0.333340 -0.608519 -0.252278 -1.336988 0.249351 -0.712119 0.548711 
人参 -1.616651 0.899605 -0.251341 1.095161 0.253609 0.202829 -0.424228 -0.280792 0.182244 -0.545704 -0.073333 0.446734 -0.059656 1.105952 -1.508948 0.983055 -0.178744 -1.206183 0.024053 -0.357756 -0.610057 0.710113 0.388174 1.084387 0.742171 -1.529457 0.577043 -0.792727 2.468957 -0.604722 0.858064 0.532449 0.902799 -1.001356 0.643346 0.141027 -1.839895 0.157543 -0.301915 0.181551 -0.213529 0.481152 -0.360281 0.375614 -0.168195 0.371564 -0.232099 -0.399313 2.081136 0.554534 0.479686 -0.048519 1.391883 -0.486581 -1.495071 -0.192110 -0.496019 -0.360537 -0.273319 0.631061 -0.689919 -0.322479 -0.685057 0.239164 0.352312 1.065984 -0.508823 0.015919 -0.136031 -0.266759 -0.425723 0.358994 -0.837290 0.229533 1.247402 0.328889 -0.262545 -0.328812 -0.861568 1.582477 -0.246556 1.296295 -0.234156 0.639970 1.827195 0.837193 0.546758 0.313515 -1.132085 0.092875 0.242579 0.200369 -0.577379 0.961421 0.232756 0.853430 -1.825723 0.180583 0.238898 -0.906937 
茯苓 -1.121979 -0.162636 0.181324 0.755220 0.385596 1.104383 -0.146881 1.123039 -0.601066 0.776862 -1.105034 0.647693 1.554544 2.549807 0.889411 0.130221 0.521272 0.609146 0.798215 0.833742 -0.114496 1.222132 0.126657 0.798880 1.011715 0.204893 0.401384 0.502342 0.482608 -0.404428 -0.267391 0.239216 0.769810 -1.569858 -0.566862 0.371488 -0.954039 1.297370 0.177080 -0.280363 -0.111164 -0.356930 -0.268626 0.535047 0.297632 -0.570807 -0.501073 -2.865378 0.601344 0.605060 -0.112440 0.512718 2.166756 0.798219 -1.017323 -1.237736 0.716605 -0.460774 0.089335 0.346126 -0.392907 -0.220292 -0.458039 0.184082 -1.431005 0.129730 0.907976 -0.167666 -0.259687 1.081474 0.468887 -1.306670 0.195308 0.946739 0.296043 -0.288709 -0.420934 -0.352494 1.417828 1.126588 0.588011 0.334381 0.575179 0.252689 -0.007519 0.463112 1.197490 0.680827 -0.070840 0.250604 0.349951 1.116931 -0.436434 -0.625038 -0.480989 -0.997575 -0.188400 0.819159 0.233633 -0.496250 
川芎 0.504188 -0.302099 -1.124365 1.427530 1.704030 0.682999 -1.086261 -0.414690 -0.329345 1.134245 -0.116165 0.841685 0.389110 1.242535 -0.752236 -1.535979 1.478333 0.472744 -0.336630 -0.281335 -0.289263 -0.478579 1.262125 1.174680 0.265840 0.411216 1.174237 0.231259 -0.651995 -1.410948 1.746958 1.104581 1.051076 1.082688 -0.501281 0.597340 0.116054 1.010900 -0.855900 -0.183692 -0.366078 -1.094537 0.193339 1.318981 0.463138 0.413020 -0.913558 -1.511483 0.962768 0.310332 -0.968574 -1.621214 0.429293 0.770178 -0.537999 -0.409254 0.310920 -1.012204 0.600240 0.674483 -1.196738 -1.053174 -0.841133 0.108766 0.692543 0.863848 -0.274229 -0.401972 0.604625 0.143361 -0.522147 0.920064 -1.007719 1.756069 1.019494 -0.291701 0.854344 1.049906 -0.974555 0.670713 0.348860 0.848945 -0.407953 0.552603 0.576420 1.188798 -0.926006 -0.384412 -0.947957 0.735419 0.648842 0.691354 -0.731591 -1.111012 0.308414 -0.703762 -0.437775 0.167841 -0.232983 0.105118 
白术 -0.252166 -0.149553 0.254585 0.503789 -0.452305 1.041963 -1.306747 -0.958413 0.760059 0.417156 0.254630 0.715677 0.775463 2.294062 0.128627 1.080359 0.069315 0.678099 0.335470 -0.488237 0.639517 0.767007 1.009021 0.394057 1.426627 0.450971 -0.217961 0.297249 -0.333764 -0.893939 1.708013 0.239686 -0.076567 0.838398 1.021554 1.230315 -0.528927 0.475561 1.016969 1.395009 0.467535 -0.785928 -0.590856 0.559618 -0.286543 -0.237756 -0.848801 -0.835855 1.507218 1.315567 1.387942 0.867175 1.610310 -0.376317 -0.572926 -0.154523 0.222077 -0.121314 0.881278 0.511018 -0.038104 -0.837441 -0.291640 -0.390793 -0.574986 0.026092 -0.164971 0.719003 0.246055 0.382033 -0.577035 1.100135 -0.492480 1.175950 0.569224 -1.282388 -1.027395 -0.293543 -0.513709 0.882266 0.046482 1.421913 0.203942 1.464489 1.111973 -0.763937 -0.294146 0.401209 -0.527392 0.632211 0.797168 0.885102 -1.147651 -0.013604 -0.882416 -0.122931 -1.608534 0.258724 -0.395341 2.476579 
防风 0.974478 0.932879 -0.336359 0.724579 1.214733 1.325155 -1.472971 -0.050144 0.600605 -1.383667 0.610942 -1.121897 -0.037838 2.287412 -0.388046 -0.487168 1.215319 1.262245 0.634541 0.188787 0.553275 -0.036468 1.671094 1.641549 0.157409 0.890305 1.750902 -1.785001 -0.236079 -1.240448 0.222897 0.005963 1.740514 0.225291 -1.286540 0.526858 -0.763656 0.208150 -0.219857 0.233257 -0.401456 -1.146598 -0.658867 0.135194 0.378959 0.977087 0.215145 0.022494 -0.526819 0.420196 -0.097805 -0.043479 0.636497 -0.104394 -1.463439 0.507750 -0.714711 -0.632699 1.950115 -0.221482 -1.055744 -0.436239 -0.327392 0.526431 -1.281951 -1.150166 0.468161 -0.178849 -0.438298 0.520270 -0.305500 1.079724 -1.397724 0.075577 0.811888 0.278114 0.110089 -0.059776 0.237450 0.046927 1.649948 1.337407 1.351689 0.851574 0.476965 1.278749 0.335627 1.375042 -0.490399 0.315404 1.053811 -0.092966 0.009908 0.439223 1.963483 0.029128 -2.670192 -1.043426 -0.473074 0.443714 
黄芩 0.975526 0.467919 0.425934 -1.173171 0.815390 -1.126808 -1.757950 0.601435 -0.149909 -0.092473 0.139901 -2.016264 1.316660 1.785637 -1.489088 -1.472714 0.702800 0.179357 0.454194 0.065718 -0.057695 -0.730721 1.164845 1.366777 1.428284 -1.166269 -0.888300 -0.583725 -0.181654 0.177744 -0.562134 0.926588 -0.419678 -0.051947 -0.130466 0.485181 -0.161028 -0.360376 -2.176946 -0.842530 -0.918894 -1.143901 -0.378111 -0.473492 -0.072421 -0.484082 0.512265 -1.151424 1.494371 0.911289 0.708092 -0.646570 1.235666 -0.361764 -0.226525 -0.396367 1.008895 -1.784292 1.311704 0.851363 -0.145096 -0.614070 -0.894242 -0.331308 -1.000671 0.631702 0.791964 -0.347606 -0.227245 0.573134 0.313242 -1.909781 -0.091087 0.615191 0.219086 -0.554170 0.213509 0.326217 -0.963526 1.055570 0.069911 0.538411 1.030851 1.068894 -0.210820 -0.035000 0.265530 0.199258 -0.473000 0.070894 0.084432 -0.276657 -0.503024 0.671450 0.184246 0.793203 -0.922336 0.885450 0.755507 1.222745 
木香 0.242942 1.044757 0.909987 1.384551 0.577748 -0.371920 1.288562 -0.361922 0.985291 1.286555 0.729069 0.326157 0.974294 1.311423 0.315014 -0.489505 -0.507715 -0.714872 -0.996528 -0.566356 -0.938764 0.614755 1.050594 -0.330435 0.054743 0.912550 -0.680134 0.434311 0.341639 -0.734497 0.093113 -0.628229 0.301285 1.462550 -0.343346 0.970837 -0.019048 0.665767 0.835135 -0.371931 -0.083189 -0.657640 0.103784 -1.082049 -0.554818 -0.104033 -1.610060 -0.686222 0.637953 -0.304832 1.291755 0.115923 0.474090 -0.385820 1.186054 -0.219947 0.972414 -0.624385 -0.910771 0.931995 -1.979855 -0.634820 -0.106315 -0.776339 0.675078 1.095502 0.272157 -0.429651 0.149452 0.480671 0.816827 1.347377 -0.281661 0.645669 0.774766 0.719295 0.006013 -0.173100 0.315651 0.718052 1.269345 -0.025167 0.503375 0.488332 1.367964 -0.462710 1.319800 2.429025 -1.553400 0.878148 -0.684823 -0.344453 -1.222268 -0.529571 0.194889 -0.811464 -1.846961 1.604319 -0.107379 -0.511962 
黄连 0.309449 0.247913 0.063681 -0.529748 0.561584 1.286402 0.359617 0.339624 0.259836 -0.751465 0.226942 -0.057525 1.345393 -0.001837 0.058512 -1.006980 0.458180 -0.448069 0.935545 1.159336 0.031780 -1.665159 -1.284008 0.513381 0.743391 -0.537201 -0.145433 0.020503 0.495337 0.164571 1.051096 -0.940709 -1.322769 0.158741 0.517485 -0.322502 -0.323025 0.134832 -1.616920 0.030239 0.313416 -0.506508 0.051193 0.231437 -1.192294 0.356264 -0.260237 0.826294 1.660123 1.171511 -0.006961 -1.192822 0.005330 0.179344 -0.449991 -0.564355 0.090056 0.275932 0.797803 0.863003 0.369675 -1.054658 0.385823 0.797092 -1.494577 0.471974 1.127222 0.211509 -0.373761 0.075561 0.413287 -0.979215 1.199637 -0.681946 0.397192 0.709885 -0.964043 -0.786277 -1.055445 -0.799206 1.330709 0.693786 -1.132195 1.150084 1.436890 1.148723 -0.194228 -1.002074 -0.022757 0.213057 0.739924 0.527937 0.378883 0.082302 -1.056528 -0.555254 -1.325541 1.152054 1.409539 0.868894 
陈皮 0.435328 -1.604287 1.247732 0.645389 0.513953 1.340102 -1.226406 0.148993 0.846718 0.150755 -1.006176 -1.339699 1.640414 1.659660 -0.009588 -0.172329 -0.282337 -0.404063 0.780426 0.848498 -0.897068 0.350921 0.228144 0.720215 0.196818 -0.384067 -0.550640 0.844188 -0.236557 -0.035786 1.272995 0.880069 0.109072 0.539388 0.735613 1.076671 -1.009623 -0.085887 -1.387617 1.895461 0.669431 -0.428525 -0.577673 -0.576766 -1.628089 0.911632 -2.039312 -0.026334 0.820819 -0.052026 1.183879 -1.263596 1.239148 -0.332360 -0.510448 0.720241 1.023467 -0.366303 -1.148651 -0.980758 -1.416075 -0.750540 0.354800 -0.782764 -0.429789 -0.172667 0.427406 -1.614880 -1.350862 -0.132290 -0.567331 -0.190246 -1.827289 0.888062 -0.191527 0.388808 0.009734 0.992094 0.351099 0.461868 -0.674979 0.833888 1.108854 -0.177803 0.362962 0.639992 -0.107926 -0.306839 -0.950768 -0.275165 0.237967 0.997499 -0.063122 2.291544 -0.790404 -0.260455 0.650075 0.776837 0.617431 -1.434384 
半夏 -0.900310 -0.302579 1.341362 0.681917 -0.655778 -0.123965 -0.709522 -1.690139 0.148909 -0.051605 -0.521198 0.604831 1.503580 1.329389 1.538784 0.443728 0.979194 0.092910 -0.716954 -0.346138 -0.841895 -0.667818 1.439237 -0.131111 1.970443 -1.254387 0.706942 0.886968 -0.501109 -0.720515 -0.033920 -0.396745 1.009196 0.704195 -0.460840 1.281043 -1.377796 0.004307 -0.192267 -0.081773 0.480546 -0.340530 -0.479547 0.033689 1.101466 1.105483 0.205457 0.390541 0.550623 1.257861 0.576989 -1.208171 0.794255 0.587111 -0.650375 -0.340310 -0.956501 -0.927383 0.000778 -0.350787 0.344142 -1.943740 -0.397707 -0.315541 0.196612 0.143352 0.355234 -0.552258 -1.532696 -0.999456 1.121718 1.191938 -0.420922 0.443798 1.215982 -0.607247 -0.834070 -0.344987 -0.113752 2.352391 0.686916 0.314364 0.574333 -0.129635 1.226485 -1.426078 0.245874 0.258058 -1.231771 0.951312 0.185296 0.890748 0.278698 -0.007221 1.381628 0.626303 -1.340496 1.215653 0.020032 0.959192 
干姜 0.903867 1.913364 0.562851 0.136728 0.327763 -0.288829 -0.246036 0.541748 0.683824 0.447000 -0.880094 1.409812 -1.373558 0.771463 -0.418551 1.192744 -0.385057 -0.249651 0.085068 1.819862 -0.733516 0.941311 1.255299 -0.461394 1.092123 -0.117633 0.118670 -0.111520 -0.173339 -1.101824 0.543506 0.535892 0.351482 0.871389 0.989758 0.787932 -0.894925 0.865734 0.353933 0.319058 1.068650 -1.538594 0.980830 1.008299 0.874387 -0.219400 -0.009136 -1.354280 1.052812 0.505721 0.337323 1.916956 1.342493 0.121831 -1.561903 -0.250347 -0.479563 -1.135147 -2.027333 0.931888 -0.463930 -0.861703 0.529598 -1.007538 -0.385199 0.509979 0.095687 0.529478 -0.071803 0.007726 1.462213 0.434948 -0.905793 0.364046 1.006927 -0.091398 0.211257 -0.082282 -0.752355 1.212071 1.251131 1.270263 0.013227 0.451732 1.136255 -0.823986 -0.547483 -0.018839 0.227999 0.458187 -0.025882 1.509310 0.084715 -0.982246 -0.092807 0.348096 -0.643101 0.286037 -0.184333 -0.584230 
生地黄 -0.344726 -0.724439 2.156601 0.807605 0.471883 -0.440228 -1.321467 -0.476744 0.465422 -1.070596 -2.497950 -0.897351 -1.166547 0.634188 -0.046518 -0.204866 0.708555 1.283020 -0.909969 -1.368682 -0.683895 -0.390946 0.045016 0.038923 0.996666 0.805956 -1.360091 -1.401267 0.595387 -0.493840 -0.492284 1.273491 0.747139 -0.822350 -0.456539 -0.844804 1.656863 -0.527208 -1.837912 0.458402 -0.021415 -1.055578 -0.556721 0.730216 -0.659369 1.043957 0.418487 -0.240844 0.431571 -0.109608 -0.520247 0.051188 0.914255 0.540818 -0.068064 -0.372783 0.435157 0.214017 0.657234 1.161690 -0.313168 0.473166 -0.626804 -1.572439 0.049039 0.145825 0.525722 -0.042804 0.663615 0.129881 -0.971815 -1.357564 0.224569 0.528587 0.283229 -0.678850 -0.468147 1.226552 0.404339 0.008298 0.217830 -0.383457 0.360071 -0.335414 1.470281 0.640387 -0.146286 -1.299488 0.157497 -0.500976 1.994713 0.153574 0.350250 0.613395 -0.009275 -0.487975 -1.123130 1.589107 -0.121537 -0.020521 
黄芪 -0.494262 -0.467218 0.418808 1.271366 1.008693 1.441254 -1.283028 0.973809 0.679117 0.031341 -1.747889 -0.073682 -0.220959 1.676957 -1.391520 -0.167828 0.416239 0.274686 -0.300193 -0.232155 1.003827 -0.322695 1.224242 -0.494484 0.427953 -0.756756 -0.403160 0.112236 0.603228 -0.325540 0.672779 0.714947 0.277896 -0.517294 -0.029293 -0.380393 -0.645050 0.926862 0.192018 -0.837002 0.246360 -1.776319 0.657017 -0.243645 -0.688399 -0.300619 0.891223 -1.388860 -0.006215 0.488223 -0.533337 -0.487214 1.373245 1.626911 -1.200780 -0.769040 0.376065 -0.838147 0.886028 0.656211 -1.053387 -0.158173 -0.642034 -0.645251 -0.653291 0.450890 -0.141487 0.052727 0.090991 -1.055752 -0.206593 -2.271693 -0.672047 -0.686030 0.516927 -0.200786 -0.512559 0.629158 -0.933369 0.402106 0.928663 2.201721 -0.400824 0.531542 0.868764 -1.218597 -1.038833 1.191739 -0.312742 0.842832 0.250335 1.518085 -0.975472 -0.847224 -0.118340 -0.264972 -1.228478 -0.128760 -1.004827 -0.009185 
附子 -0.578730 -0.647076 0.903290 0.765066 -0.027892 0.697341 0.547244 1.982754 -0.133062 -0.504249 0.416438 0.718248 -0.788273 2.260632 -0.889643 0.301761 0.060015 -0.376967 0.540081 0.049336 0.823439 -0.308873 1.474178 -0.584745 1.009156 -1.717280 -0.641422 -0.902319 -0.102224 -0.091311 1.105726 0.207359 0.896797 0.594327 -1.056450 2.857454 -0.385083 0.818099 1.329388 -0.022376 1.181525 -0.623717 0.171824 0.407762 0.753908 1.587366 -0.584393 -1.418965 0.649078 -0.044624 -1.429464 0.836096 1.458339 -0.029891 -1.036129 0.452756 -0.708835 -0.027299 -0.906211 0.477521 -0.898221 -1.393569 0.309344 0.378921 -0.165121 0.412656 -1.392961 -0.177346 -1.924141 0.476000 -0.523874 1.189040 -1.172988 0.490907 0.304965 -0.471929 -0.132924 -0.609485 -0.879750 0.941399 0.165759 -0.009126 0.022899 0.211884 1.402315 0.294681 -0.396008 1.050099 -1.163653 0.874552 -0.439188 -0.574126 -1.548293 -2.657354 -0.023719 0.291249 -0.985964 -1.138100 -1.006756 -0.046244 
大黄 1.054892 0.295157 0.174011 -0.019285 -1.265519 -0.800324 -0.560852 0.106403 0.227445 -0.242231 0.877077 0.019460 -0.911428 0.121672 -0.048337 -0.728411 0.885775 0.739807 0.010277 0.563049 0.356200 -0.368315 -0.582957 0.496845 1.005971 -0.821115 -0.366496 -0.248382 -0.747041 0.038056 -1.097479 -0.668614 0.274350 -0.197030 -1.017754 2.538532 -0.280563 0.478592 -0.327835 0.947725 1.364177 0.224027 0.566014 1.917947 -0.885122 -0.670133 0.433876 1.866901 -0.688555 1.125516 0.701477 -2.407972 0.629399 0.053406 0.116665 -1.038303 0.871208 -0.043055 0.272670 1.067327 0.301968 -0.723741 0.444052 -0.465699 0.053739 0.631680 0.879026 -1.337650 0.470139 0.484317 0.179424 -0.535247 -0.625880 0.090993 2.461843 1.217724 0.385455 -0.039404 -0.336828 0.394307 0.516661 0.436509 1.003914 -0.391167 -0.412951 1.373464 -0.069089 -0.226922 -0.487547 -1.190105 -0.176461 0.723069 -0.907055 0.629809 -0.034299 -0.809917 -1.175822 0.747849 -0.338897 1.183930 
麝香 0.382162 -0.280954 0.429572 0.532718 -0.947443 0.374394 0.623072 0.625087 0.743988 -0.553064 2.197983 0.918219 0.058456 -1.597296 -0.429792 -0.735300 0.240044 -0.394252 -0.645297 -0.195232 -0.613888 -0.131190 0.924271 -1.138160 0.142490 -0.878374 -0.625242 0.962850 0.640577 -1.084049 0.862128 -0.432815 -1.162975 0.548122 -0.444190 -0.660651 0.212506 -0.497413 0.210084 -0.421134 1.608069 0.731931 0.239370 0.665858 0.487996 -0.486210 0.480977 -0.282521 -0.495345 -1.121390 -0.694888 -1.610799 -0.251024 -0.241230 0.240111 -0.062840 -0.942938 1.075196 1.654416 0.541336 -0.885077 0.808347 0.527570 0.585806 -1.770077 1.966336 -0.957711 -1.247180 0.162128 0.036675 0.409178 1.576438 -0.961069 -1.691490 0.040279 1.097543 0.466745 0.362552 0.509385 -0.107683 0.791858 -0.444115 -0.574069 0.971819 1.645252 -0.722988 3.259415 1.561873 -0.090902 -0.365662 -0.093348 -0.521438 -0.208700 0.169377 0.356998 0.368430 -0.245120 0.252032 -1.637748 -0.195808 
枳壳 0.093766 0.101915 -0.685117 0.625676 -0.096291 0.075330 0.381360 0.130342 1.680300 -0.210357 -0.381948 -1.044261 -0.183020 1.968837 0.123758 -0.651573 -0.139623 -0.055537 0.143073 -0.811874 -0.264617 0.392156 1.623432 1.870123 0.490767 0.350779 0.585206 0.490089 -0.470733 -0.698505 0.325356 -0.224590 -1.365251 0.702556 0.120338 1.679306 -0.032671 -1.061001 -0.834526 0.240881 -0.825357 0.060308 -0.181008 0.970518 0.144076 0.481964 -1.665844 -1.197684 0.867602 1.005303 0.758970 0.287161 0.529344 0.686034 -0.209465 0.208049 -0.876071 -0.166700 1.478428 0.298883 -0.227498 -1.674804 1.164966 -0.095880 0.099623 -0.372820 0.186821 -1.238282 -0.610130 -0.377507 -0.915895 -0.224715 -1.263590 1.483717 -0.189490 -0.514443 1.439178 0.957787 -1.144938 1.284546 0.373020 0.170161 -0.246885 0.590629 -0.028976 0.232245 0.304256 0.229771 -1.004766 0.321412 -0.350706 0.708124 -0.655477 -0.115138 -0.792667 0.002070 -2.223122 1.136131 1.675561 -0.489987 
桔梗 0.665827 0.356419 0.428544 1.383416 -1.198144 0.236341 -0.599604 -0.786084 0.427254 -1.527488 0.147978 -1.143715 0.402542 2.214895 -0.858356 -0.920540 1.141956 0.061957 0.289629 -0.414138 0.301388 0.023486 1.922164 1.819779 2.237782 -0.091207 1.876672 1.136961 0.558753 -1.322710 -0.004111 -1.134495 0.487079 0.702185 -0.030733 0.056217 -0.097153 0.161677 -1.492597 -0.602493 0.111001 -0.576303 2.027741 0.170949 -0.689237 1.065561 0.393748 0.091613 1.559344 0.716037 0.456613 -0.659363 1.046427 1.030660 -0.807248 -0.955235 1.538259 -0.515935 -1.365240 -0.623756 0.099109 -0.415657 -0.031595 -0.406780 0.629361 -0.093321 1.447179 -0.211869 0.154108 0.460927 -0.128237 -0.032212 -0.028199 -0.070981 -0.119293 -0.932781 -0.912792 -1.290938 0.001443 0.697718 -0.062470 0.908385 -0.027528 1.042551 0.398408 -0.457524 -0.645439 -0.898496 -0.082507 0.041244 0.385595 0.771830 -1.231786 1.481707 0.283497 0.896757 -1.267814 0.767961 -0.460540 0.279084 
朱砂 -0.252845 0.155687 1.535333 -0.428626 -0.736313 -0.034850 1.686636 0.671201 -0.833134 1.235761 2.157947 1.243538 0.508224 1.012729 0.038440 -0.139984 0.755371 0.015051 1.023591 0.627803 1.986787 0.490187 1.204521 -1.727220 -1.484695 -1.567366 0.297572 0.416298 -0.206266 -0.425709 1.474485 -0.754945 0.489351 -0.500217 0.555392 -0.252920 -0.334970 -0.386095 -1.292491 -0.245159 0.624420 -0.073440 -0.544473 -0.276398 -0.891412 0.989250 0.949249 0.801409 -0.180043 -0.068329 -1.579823 -1.221284 -1.523882 0.123058 0.577395 -0.366406 -0.508623 0.156578 1.119901 -0.162307 -1.038764 1.192158 -1.199605 0.844412 0.403733 0.457663 -0.018516 -0.130521 0.182243 0.944470 -0.015266 1.687097 0.529194 -0.258329 1.364831 -0.359331 1.050226 -0.531526 -0.237738 0.432418 -0.500838 1.400960 -0.631735 0.827044 0.838301 -0.457675 1.586880 -0.228272 -1.009970 0.123523 -2.148438 -0.418010 -0.528777 0.729727 0.856040 -0.671768 0.430838 0.794881 -0.195948 -0.508821 
柴胡 0.392335 0.198148 0.625015 1.105335 1.453535 0.596045 -0.783224 -0.620044 1.241419 -0.304902 0.229136 -0.569823 -0.793446 2.561053 -1.212787 -0.210155 1.341797 1.194304 -0.704733 -0.522395 0.103975 0.414043 0.064805 0.207981 0.088652 -0.239822 1.395090 0.446819 0.561268 -0.959631 0.626830 -0.889363 0.157137 -1.270292 0.784164 0.806416 -0.393150 0.027235 -0.922591 0.976111 -0.182021 -1.792425 -1.113296 -0.650951 -1.195923 -0.118436 0.331522 0.459534 1.295061 -0.446731 0.846688 -0.275952 0.461504 1.580187 0.800916 -1.147374 0.808785 -0.993091 -0.245241 -0.080328 0.281246 -1.180753 -0.753069 0.851366 -1.430249 0.311861 1.295768 -0.621691 -0.372829 0.173500 0.386268 -0.691699 -0.916572 2.947756 1.652092 -0.864699 -0.961280 0.067467 -0.517077 0.881539 0.817983 -0.025809 0.618833 0.862009 0.219122 0.017857 -0.316043 -0.979334 -1.313681 -0.819262 -0.280697 0.474072 -1.522303 0.209747 -2.654545 -0.703014 -1.949262 0.647130 0.768183 -0.059461 
桂心 0.487204 -0.777993 0.515922 1.874603 -0.485484 -0.389144 -0.714632 1.706292 -1.306284 -0.091314 0.997875 0.324926 -1.747393 0.658769 -1.656195 1.440111 0.155623 -0.695981 -0.348027 -0.201735 0.087565 1.015036 0.975826 1.565535 -0.731014 -1.263714 0.794928 0.773578 0.856878 0.222959 -0.627559 0.234146 0.310735 0.287468 0.508512 1.671062 -0.870631 1.940756 -0.211084 -0.545928 1.583991 -2.794281 -1.541396 -0.447207 -0.958768 0.978894 -0.904412 -2.143457 1.087201 1.024488 -0.208014 1.454636 -0.748055 1.036962 -0.323602 -0.392254 -0.839639 -1.095921 -0.472117 -0.141198 -0.675321 -0.150020 0.092446 -0.829002 -3.612554 0.600331 -1.668871 0.565441 -0.223714 0.508930 -0.878034 1.058816 -0.048826 0.802954 -0.002769 0.853453 0.662024 -1.242771 -0.586208 1.123625 -0.364892 0.845243 -0.276134 1.006259 1.698604 0.113832 -1.682071 0.248950 -2.097428 -0.557544 -1.589531 0.489786 0.607566 -1.494161 1.735521 0.296112 -1.730262 0.410673 -0.690001 1.267856 
羌活 -0.419419 0.162213 -0.285002 0.498508 -0.719214 0.520053 0.025659 -0.206234 0.438286 -1.882633 0.125258 -2.122333 -0.985658 2.276182 0.371967 -1.451907 0.634347 0.399035 0.800899 -0.525094 0.398142 1.221035 1.393708 1.867132 0.498734 -0.442851 -0.335377 0.460531 0.560623 -0.805824 2.154074 0.538028 1.201980 -0.143623 -0.683378 -0.502325 -1.143997 -1.527163 1.663196 0.806027 -0.596773 -0.932978 1.069585 -0.118776 0.640240 -0.059399 -0.930426 -1.381097 0.670129 1.193129 -0.353200 -0.820751 -0.487631 -0.535327 0.302865 -0.388294 -0.324378 -1.580209 0.747476 -0.018754 -2.720272 -3.194318 -0.774705 1.684538 -1.288411 0.628173 -0.389846 -0.762310 -1.119562 -0.436982 0.125210 1.223688 -1.079586 0.117323 1.109688 -0.546765 0.510882 1.159648 0.900128 0.462952 -0.353937 0.289429 -0.143923 0.456223 -0.246036 0.056803 -0.706449 0.878581 0.205942 -0.296635 0.725977 1.618257 -1.216512 0.013280 0.297275 -0.373993 -0.495602 1.732042 -0.009541 2.174867 
厚朴 0.701017 2.152515 -0.416291 1.364536 -0.394044 -0.344735 -0.972785 0.715904 1.226809 0.693933 -1.185080 1.339805 0.845874 0.881761 -0.452083 0.307487 1.304151 -1.145464 -0.086617 0.216087 -0.038156 1.067247 0.394837 1.274371 0.361848 0.189628 0.325501 0.722934 -1.443206 -1.487451 -0.531365 -0.687499 0.498697 0.745291 1.416761 1.335606 -0.167189 0.292481 1.156648 -0.122708 -0.112788 -0.613324 -1.276988 -0.120023 -0.848109 0.490600 -0.427597 -0.918030 1.263189 0.918911 0.014302 -0.371333 1.859866 -0.838419 0.158566 -0.281302 0.600447 -0.936375 -0.045748 -0.696254 0.312932 -0.014851 -0.144814 0.674134 0.006934 1.112563 -0.271781 -0.700401 -1.803198 0.994575 0.402259 -0.061126 0.211308 0.472694 0.781787 -0.908086 -0.723549 0.625566 -0.200760 1.506888 1.209922 0.643092 0.114863 0.067401 0.361071 -0.819781 -0.824225 0.186171 -0.064655 2.395294 0.097241 0.325426 -0.303237 0.640037 -1.202490 0.876764 -0.928072 1.393652 -0.315880 0.217956 
赤芍药 0.102948 1.503303 -1.472071 1.070936 -0.019029 0.100237 -1.000288 -1.046043 0.995195 -1.987584 -0.469801 -0.852895 -0.156851 1.795504 -0.542104 -0.719924 0.811011 0.015637 -0.620039 -0.003748 0.512602 -1.476827 0.267446 0.975201 -0.149441 -1.365541 0.667032 -0.138600 -0.751993 -1.061190 0.077755 0.939131 -0.764711 0.581048 -0.209067 1.132779 1.005606 -0.808290 -0.608902 -0.024314 0.223322 -0.636642 0.886014 0.351428 -0.099841 1.158756 -0.661021 -2.041501 0.187951 -0.929933 -0.092605 -1.572951 0.674166 -1.183427 1.008825 -1.932840 -0.939452 0.016273 0.528443 -0.432048 -1.117780 -1.127339 0.399947 0.481651 -1.237218 0.932334 0.500396 -0.346582 0.058441 -1.871010 -1.268358 0.401571 -0.348638 0.680329 -0.174456 -0.457420 0.776774 -1.411108 0.011280 0.273924 1.020179 1.407061 0.740381 -0.392713 -0.744045 0.888600 0.104741 0.409093 -1.205067 -0.946157 0.181733 0.188950 -0.090845 0.902405 -0.858765 -0.230051 -0.853191 0.788281 1.188158 1.153965 
细辛 0.973429 0.643804 0.129175 0.703535 -0.478593 1.702467 -0.461177 0.834575 0.501662 -2.297306 0.562906 -0.048754 -0.745827 0.882422 -0.026280 -0.456453 -0.190509 -1.539190 1.277009 0.046902 -1.653805 -0.559553 1.192493 1.181690 0.698329 0.376399 1.402984 0.298310 1.240720 -0.836121 1.869854 -0.985082 1.462495 -0.627380 0.327998 1.523355 -0.974968 -1.356703 0.747380 -0.905152 1.179670 0.343454 -0.574039 0.273533 -0.018797 0.041864 1.019007 -1.050389 0.235357 0.559712 -1.185745 0.009240 -0.284026 0.295413 -0.226305 -0.949736 0.921355 -2.431301 0.549974 0.401312 -0.643474 -0.828148 -0.506541 0.683661 -0.040414 0.508035 -0.501174 -0.069582 0.850044 0.868586 -0.302335 0.162179 -1.538294 0.633046 0.816975 -0.787455 0.086679 0.222216 -0.686988 -1.403361 1.548579 0.884602 1.069569 -0.249384 -0.056520 -0.701863 -1.275463 -0.681142 -1.071180 -0.757670 0.321204 -0.719239 -0.678606 -1.013707 1.352547 -1.197615 -0.765715 0.269775 -0.436033 -0.073844 
槟榔 0.911951 -0.638355 0.711797 0.106989 -0.388846 -0.475503 -0.525949 -0.316312 0.974086 -0.145804 0.580489 0.387499 0.914529 0.936869 -0.343216 0.666620 0.877600 -1.835994 1.087116 -0.208291 0.010453 1.431677 1.155381 0.795698 0.845709 -0.313995 0.139971 -1.442653 -0.178272 -0.874545 0.673875 -1.391351 -0.476773 -0.510329 0.515695 0.483143 0.409678 0.296856 0.234163 0.535550 -0.438237 -1.196831 1.305708 -0.154853 -0.269152 -0.609935 -1.129961 -0.679262 0.197443 1.302875 0.581919 -0.691277 -0.226774 0.751721 0.987816 1.382098 -0.582902 -1.096060 -0.632861 0.648546 0.532165 -0.822947 -0.365771 -0.224387 -1.103836 1.322888 -1.029447 -0.986470 -1.712455 -0.147953 0.934309 0.378674 -0.943966 -0.717257 -1.073186 0.405286 -0.384791 -0.610779 0.553253 0.658448 1.792993 -0.653270 1.249496 -0.442680 -0.168643 -0.643483 1.456486 0.068639 -1.624939 1.204263 -0.371411 1.416584 -0.989594 -0.051794 -1.698157 -0.293699 -1.142562 1.071048 0.617985 -0.471315 
白芷 1.200657 0.831763 -0.452779 0.810163 -0.602463 1.205439 -0.164846 1.242158 -1.073402 -1.290799 1.813238 -1.383306 0.018094 1.725056 -0.692624 0.153102 0.058566 -0.129296 -0.388205 -0.752242 1.483286 -1.704718 0.475586 0.186288 0.888348 -0.392745 0.444474 -0.211873 -1.326966 0.118154 1.435481 1.203243 0.326370 -0.072994 -0.240338 -0.283319 -1.385061 -1.256918 -0.155308 -0.575838 0.925834 -0.776988 -0.152623 -0.607100 1.412678 -0.361143 -1.171082 -0.263047 0.921913 -1.152039 0.492200 -0.803987 1.961545 -0.144499 0.220387 -0.910205 0.807257 -0.716679 0.023520 0.196813 -0.232404 -0.359891 0.205192 -0.431871 0.631741 0.179874 0.281721 -0.758762 -0.617918 0.206515 0.579054 0.091390 -2.338070 1.222180 0.308716 1.078370 0.467438 0.167833 0.050929 1.391327 0.791601 -0.855039 0.121060 0.298903 -0.408891 0.537322 -0.225588 -0.069180 1.551830 0.138480 1.206652 0.039149 0.209734 -0.840698 -0.062786 -0.545455 -1.861351 1.097415 -0.520683 -0.005992 
杏仁 0.492495 -0.422277 1.325615 0.371924 -0.034978 0.166742 0.430916 0.185167 0.664055 -0.948807 0.488208 0.925353 -1.721817 0.914023 -1.390557 0.194896 -1.038341 -0.354731 -0.239803 -1.135246 -0.234288 0.131610 -0.199655 1.034989 1.164048 -1.850430 1.595907 1.474712 -0.414686 -0.178592 -1.432888 -0.746474 -0.149740 -0.416206 -0.136029 1.365841 0.029942 -0.040419 -0.605111 -0.319348 -1.355818 -0.776711 -0.179967 0.311711 -1.231698 -0.324661 -0.838525 0.440800 -0.142347 0.534104 -0.175796 0.085730 0.781410 0.572473 -0.823843 0.134067 1.015624 -0.689786 -0.508460 0.764646 0.788449 -1.157744 -0.994897 -0.129075 -0.207692 0.285920 -0.033152 -0.202480 0.069260 0.146334 0.143082 0.460088 -0.646277 0.542722 -1.043693 -0.318750 -0.008081 0.017882 0.152104 0.810068 0.380313 1.575310 -0.383672 -0.629802 -0.159625 -1.186029 0.646147 0.678143 1.262023 0.549712 0.595439 0.130703 -0.045150 0.391820 0.815491 0.604081 -0.067503 -0.047875 0.041545 0.569883 
栀子 1.272822 1.329942 1.799216 0.282263 -0.042075 -0.175370 -0.826031 -0.260659 -0.350120 0.182838 -1.009903 -1.399041 0.169163 1.984068 0.384226 -1.129193 0.586114 -0.183176 0.696561 -1.587560 -0.613677 -1.051507 -0.492796 1.294420 -0.452092 -0.201340 0.422839 -1.295938 0.054044 -0.177625 -0.068377 -0.302081 -1.254081 -1.318713 -1.319307 0.272645 -0.050722 0.292063 -0.677910 -0.752888 0.099155 -2.154993 -1.117008 0.187983 -1.262905 -0.258806 -0.096370 0.746153 0.956299 0.488701 -0.078726 -0.717257 0.517059 -0.160375 -0.137183 -1.984762 0.628898 -0.475857 0.707597 -0.240636 0.977491 -1.132078 0.251401 1.294297 -0.697086 0.818881 2.069259 -0.511254 -0.276225 -1.037711 0.282870 0.002139 -0.241345 -1.482755 0.837514 -1.246675 0.920244 0.482537 -0.630360 0.755417 0.525859 0.552861 0.661198 0.755322 0.487893 0.284301 0.545318 -1.509943 -0.774561 -0.604227 0.283606 0.780096 0.906018 1.446255 -1.019337 -0.363791 -1.464784 0.707869 1.248362 -0.702909 
白芍 -1.047103 -0.208593 0.128210 0.826162 -0.898124 2.302498 -0.551909 -0.363174 -1.341443 -0.793771 -1.642269 -1.658184 0.949494 2.213274 -1.396529 0.958471 0.546593 1.915473 -0.066387 0.419248 0.383535 -0.419160 0.195385 1.439143 -1.970065 -1.226902 -0.371008 1.574330 0.759583 -2.170317 0.165199 -0.515540 0.173566 0.516047 0.460326 -0.658486 0.695031 0.061958 -0.288407 0.739251 0.350134 -0.380808 0.334416 0.616448 1.137003 1.977124 -1.240638 -0.971563 0.818341 -1.015920 0.982439 -1.176227 1.403108 -1.384101 -0.833776 -1.849344 0.612038 -0.171934 1.147503 0.197767 -1.188702 -0.606485 0.352149 -1.535217 -0.853343 0.456552 1.222304 0.634503 -1.112100 -2.107447 -1.216615 -1.855877 1.121382 1.399157 0.727934 -1.366477 0.022771 -0.218516 -0.490627 0.390844 0.322464 2.156790 1.205663 -0.975506 -0.189832 0.259373 0.264297 0.757469 -0.493597 -0.016344 0.252779 -0.287549 0.470782 0.622119 -1.624752 1.111020 0.977315 0.779822 2.797984 0.231810 
麦门冬 1.098282 0.441878 -0.249334 0.147312 -0.285303 1.405813 -1.432631 0.301586 0.131083 1.398168 -0.228028 -0.660975 0.259612 0.914227 -1.347726 0.597153 0.999053 -0.438548 -1.006935 -1.992795 -0.477258 -0.710492 0.384042 2.229951 1.208052 -1.872057 0.020619 0.718801 2.000379 1.317082 -0.018975 0.471532 0.452843 -0.584270 -1.760372 -0.094007 -1.251989 2.043789 0.267738 -0.337283 0.069617 -1.565377 -0.798648 -0.873692 -0.048922 2.443585 0.483599 -1.712389 0.488742 1.456936 1.270038 1.370775 0.634944 1.321800 -1.313276 -0.125381 -0.003698 2.039616 0.638201 0.443183 0.843307 -0.914475 -1.008662 0.943738 -0.029765 2.168058 0.980811 0.437713 -0.252593 0.954682 0.726414 -0.591575 -0.547827 0.877720 0.522427 -1.536759 -1.899136 -1.802235 -2.160016 -0.750364 0.237599 0.538711 -0.786061 0.877866 -0.403102 -0.124620 1.103909 1.219946 -0.389891 -0.757069 0.245333 0.065403 -2.177745 0.216464 -0.025561 -1.166962 -0.255589 0.466874 1.225172 -0.375154 
乳香 -0.609749 -0.375756 1.177015 -1.361361 0.213424 0.682425 0.010890 0.250280 -1.437953 -1.831779 1.520389 -0.573813 0.325394 -1.036283 1.091307 1.119031 1.408299 2.245325 -0.473474 1.052975 -0.714724 -0.076590 -0.496179 -1.096480 0.643723 -1.837922 -0.841711 -1.138432 -1.294039 -0.910837 -1.309666 0.880000 -0.770889 2.070853 0.261013 -1.110833 -0.268677 0.506124 0.873322 1.646373 -0.154819 -1.428120 1.835255 -0.138552 -0.625141 0.760764 -1.013529 -1.751104 -0.169054 -0.776707 -0.301379 0.170934 -0.509794 0.806367 1.213233 -0.835591 1.238232 -0.905853 -0.441006 0.334809 -1.488728 1.559801 -1.751818 0.574937 0.382567 0.607163 -0.653790 -0.971096 0.225089 0.333612 0.240299 0.507411 -2.281481 -1.531497 0.127459 0.610296 0.303940 -0.073416 1.380373 0.603098 -0.362652 -0.688147 -1.167074 0.662354 -0.171077 0.946215 0.394652 -0.177204 -0.031285 0.300704 0.400439 -1.886775 0.354596 -0.845270 0.367210 -1.226619 -1.005788 0.942619 -0.945223 -1.768393 
芍药 -0.212741 0.322103 -0.350135 0.659616 -0.125104 0.404087 -0.962062 0.564956 -0.215354 -0.617910 -0.476612 -0.306717 -0.630372 0.519262 -1.153038 0.290675 -0.423253 -0.157350 -0.266659 0.737797 1.592009 -1.182475 0.026722 1.358624 -0.294173 -2.318970 0.851080 0.061436 0.472835 -1.538268 -0.890145 -1.000010 0.261393 0.448825 -0.594175 1.255640 -0.397111 0.104992 0.224520 -0.046925 1.305779 -0.916186 -0.892663 0.939120 0.579273 2.758123 0.112846 -2.291704 0.259562 0.109495 0.960968 -1.596849 1.278889 -0.898942 -0.204596 -1.597117 -0.759565 -0.510014 -0.310890 0.686390 -1.426293 -1.145245 -0.034327 -0.417309 -0.598853 0.240360 0.657785 1.637646 -0.555361 -1.223494 0.013411 -0.241973 0.201038 1.247923 0.813007 -0.919784 0.690926 -0.879467 -0.314020 0.162907 0.923431 2.541937 1.428384 -0.321239 -0.213411 0.626309 -0.529937 0.710375 -0.522533 -0.716353 -0.049416 1.030370 0.042748 0.529518 -1.157582 1.021335 -0.280893 0.407424 1.567070 1.347352 
麻黄 -0.285482 0.413238 0.122692 1.599395 0.000181 0.582481 -0.993084 -0.800858 -0.795030 -1.721830 -0.528217 0.126405 -0.613459 1.328733 0.318817 -0.136529 1.402774 -0.943852 0.547623 -0.274930 0.633617 0.595760 1.493285 1.068522 0.628978 0.834640 0.609976 -0.524482 0.788655 -1.545410 -0.675860 -0.063097 -0.058196 -0.725022 -1.915735 0.068641 -1.976376 -1.284155 -0.680943 -0.170070 0.941840 -1.194915 -0.156397 -0.649323 1.089640 1.424668 0.368216 -0.290627 -0.289597 0.435916 -0.663506 -1.160273 -0.002516 1.540369 -0.041769 0.548788 -0.194172 -1.603346 0.394506 -0.182398 -1.280393 -1.944132 -0.406909 1.650860 0.589939 -0.031787 1.438382 1.511734 0.104888 0.104770 0.764555 0.094557 -1.368052 0.641918 -0.190175 0.819046 -0.526121 0.380439 0.114792 1.136157 0.183888 0.344762 -0.753711 1.561917 0.437316 -0.317335 -0.575312 0.274382 -0.204547 -0.255603 -0.499942 -0.133002 -1.113964 -0.794648 0.922626 -0.388758 -0.818306 -0.282676 -1.391221 0.880274 
牛膝 -0.901548 0.565576 1.234427 1.472654 -0.240558 -0.116778 -0.732210 0.403407 -0.811463 0.094638 -0.731163 -1.433917 0.439990 2.104494 -1.924236 0.698636 0.879109 -0.178387 0.997441 -0.279181 0.500054 0.812287 -0.511708 0.006405 -0.830025 0.737646 0.149438 -1.440891 -0.438985 -0.226257 1.386963 0.923774 -0.203105 0.614635 -0.602778 0.752785 -0.403648 -0.555904 -0.515934 0.275850 0.018639 -0.219158 2.073337 -1.418293 0.046574 -0.469577 0.007784 -1.673044 -0.658515 0.528827 -0.998947 0.774360 2.129719 0.335342 -0.654462 -1.298596 -0.987086 1.071365 -0.047742 1.474025 -0.599528 0.581540 -1.035252 -3.040792 -1.165089 1.720371 -0.572963 0.655706 -1.363558 -0.050512 -0.200982 1.381446 -1.179067 1.546805 1.052322 0.115563 -0.026804 0.006928 0.103773 0.002240 0.453487 1.322095 -1.040685 -0.241110 -0.729089 1.204134 -1.428454 1.245984 -1.767617 0.257723 1.136488 0.436016 -1.387918 -1.095532 1.261494 0.186586 -1.871522 1.449761 -0.565224 0.847586 
黄柏 -0.259858 -0.170465 1.737178 0.351974 1.578328 1.272244 0.140328 -1.147081 0.998480 -0.765877 -0.181487 -0.722734 -0.855893 1.091194 0.052513 -0.311875 0.290557 -0.297414 -0.583395 0.350731 -0.102439 -1.760927 -0.160316 1.611650 -0.698819 0.014835 -0.326902 -0.424443 -0.540713 -0.513179 -0.210701 -0.708422 0.132998 1.387271 -0.161179 1.109691 -0.750622 -0.333090 -0.203415 -0.108093 -0.025982 -1.425982 -1.003668 1.830955 -1.703161 -0.720310 0.351936 0.159092 0.540811 -1.343616 -0.285929 0.142805 1.126429 -0.863842 -0.977951 0.307185 1.335507 0.469205 1.418492 0.305445 0.511326 -0.657961 -1.324550 -0.032968 0.442509 -0.085586 0.944985 -0.188040 0.461342 -1.447963 -0.977420 -0.842736 0.744869 -0.577672 1.409192 -1.388091 0.385187 -0.645611 -0.860249 1.206478 -1.488227 -1.973416 -0.055555 -0.158793 -1.044205 3.218695 0.469673 -0.347449 0.287750 0.532822 0.789071 -0.131022 -0.844087 -0.280938 0.273565 -0.767417 0.723716 1.784738 0.332362 0.186789 
苍术 -0.902214 -0.893023 -0.789535 0.045698 -1.024322 2.339288 0.472835 -0.272032 -0.943897 -1.636309 0.386371 -0.990099 -1.011989 1.647699 0.177840 -0.132741 0.825512 -0.030614 0.759269 -0.539830 -0.077343 -0.619451 0.728352 0.975622 0.804869 0.449137 1.477468 -1.475093 -0.062001 0.535013 0.643294 0.733945 0.325420 0.720288 0.053174 1.142989 -0.662059 0.342016 0.185580 1.006379 -0.278195 -1.273654 -0.229602 -0.271459 -0.315909 -1.626284 -0.843097 -0.492508 -0.278663 1.070007 1.439264 -1.114906 0.740153 -0.107379 -0.479072 0.016694 2.252084 -1.287771 -0.634841 0.682714 -2.772534 -1.641162 0.284601 -1.015781 0.166332 0.606521 1.128670 -1.320973 -0.638034 0.020634 -0.551452 0.455687 -0.107434 1.274044 0.821278 0.068471 -0.674386 0.869041 0.355261 -0.144818 0.656986 0.364599 1.366247 1.224972 0.821213 1.149953 -0.426027 0.655075 -0.769829 1.068128 0.555163 0.250367 1.323030 -1.215464 -0.534242 0.554124 0.048890 0.065888 1.662349 1.037057 
雄黄 1.081352 1.071426 1.250494 -1.821610 -0.682350 -1.111371 0.556522 0.105430 0.274399 -0.935440 0.865118 0.365926 0.764765 -0.293982 0.039698 0.173588 -0.931616 0.507278 0.046684 1.835179 -0.625740 1.740550 0.826588 -0.472323 0.024375 -1.002675 0.830852 1.622740 -0.023754 0.191873 0.225334 -1.211111 -0.842799 1.080803 0.284582 -0.482899 0.878364 -1.331890 1.351774 -0.890315 0.589441 0.005007 0.337549 -0.800407 -1.291029 0.652639 0.447341 1.125926 0.420106 -1.037387 -0.734477 -0.947817 0.204638 -0.178265 -0.712694 -0.098183 1.915067 0.792824 1.114903 0.687194 1.311471 -0.743555 0.336802 0.010652 -0.270925 -0.406365 -0.263343 -0.205308 0.032457 -0.156562 0.150382 1.058299 -0.482631 -1.179766 -0.048125 0.592088 0.254671 0.064470 0.716322 -0.919436 1.038571 -1.177047 -1.167698 -0.043151 0.784690 0.583487 -0.063471 0.297491 -0.181700 -0.666616 -0.462600 0.000827 0.338839 -0.371497 0.264324 -1.440779 -1.677087 -1.724324 -2.815435 1.115667 
石膏 -0.748279 0.353695 -0.187692 -0.037963 -0.230209 -0.434217 -1.104319 0.003346 1.393492 0.320539 0.685137 -0.846570 -1.230612 0.394697 -0.922701 -0.819883 -0.059160 -0.048578 0.381627 1.201593 -1.005668 -1.492413 1.675452 1.583402 0.525966 -1.268580 0.868345 -1.044900 0.840902 -0.206460 0.771246 -0.786986 1.452260 0.227602 -0.796290 0.026457 -0.494279 -0.374687 -0.860740 -1.055674 2.287951 -0.253000 -0.605852 -1.719854 -1.358034 0.468625 0.823762 0.534300 0.069621 0.771741 -0.525071 0.907226 1.610191 0.874669 -0.475047 -1.145475 0.956128 -0.391227 1.147249 -1.117988 -0.478691 -0.556845 -1.796407 1.618386 -0.858836 -1.112088 0.966181 0.079842 -1.097576 1.430444 0.491794 0.025884 -0.323477 -0.935876 0.511618 -0.916268 0.574211 -0.334714 0.479727 0.400771 1.359320 0.269990 -0.248662 0.347315 0.313508 0.683949 -0.002425 -0.582319 -0.016064 -1.403393 0.125400 -0.384073 -0.560986 1.306897 0.736522 -0.570176 -1.171538 0.649955 0.825209 1.420208 
升麻 0.894583 0.021756 0.023403 0.338252 -0.691509 -1.300964 -0.076331 -0.601907 0.352068 -1.044940 -0.502886 -0.586179 -0.220287 -1.089885 0.123108 -0.270302 1.897377 0.373664 0.453136 -0.922600 0.650769 -0.485505 0.276342 0.618235 1.191648 0.432668 1.062620 -1.350170 0.023750 0.179388 1.284731 0.263456 0.958592 -0.903657 -0.747413 1.597633 -1.481038 0.338114 -0.368582 -1.008128 0.889845 -1.862551 -1.549453 0.926970 0.575831 0.576484 -0.010260 -1.560548 1.900755 0.809377 -0.609632 -0.945999 -0.093434 -0.064477 -1.814169 0.101487 0.775724 -0.935153 1.377802 0.521749 -0.925987 -0.417224 -0.169738 0.959283 -0.222763 1.224647 0.794720 1.138570 1.145715 0.553887 -0.384300 -1.559064 -0.083108 -0.100535 2.742989 -0.543022 -0.683991 -1.351997 1.160627 1.345171 1.047305 -1.098644 0.492362 -0.701597 -0.807051 1.013065 -0.812661 -0.206251 0.393507 0.654082 -0.506033 0.334293 0.187288 2.401987 -1.129191 0.006385 -1.866829 0.783357 1.419352 0.873975 
五味子 0.493941 -0.128160 0.585544 1.007163 1.527840 0.331521 0.046941 1.811734 -1.137518 0.176257 -1.582471 1.017191 -1.130531 0.880631 -1.006455 -0.040168 0.213860 1.210130 -0.003939 0.403690 -0.002905 -0.498343 1.035614 0.793611 2.017962 -1.366148 -0.097289 0.034309 2.000969 -0.952273 -0.481694 0.526891 0.383781 -0.408211 0.733631 0.425860 0.360264 0.455906 0.109375 0.837403 -0.166363 0.166893 -0.106183 1.183682 0.261473 -0.211623 -0.834698 -2.426297 0.091146 2.320758 1.359644 0.716205 2.765037 0.097916 -0.831254 -0.836282 -0.277005 1.156837 -0.176058 -0.691494 -0.508759 0.375915 -1.883214 -0.014297 -0.169475 0.307515 -1.495821 -0.027505 -0.318671 1.828226 -1.297089 0.052925 0.553869 1.638888 1.135788 -0.704666 -1.087074 -0.615584 0.095192 1.620612 -0.287504 0.814818 -0.312592 1.028854 -1.021954 -0.819964 -0.082679 0.892548 -1.531473 0.535832 0.784203 1.439186 0.093458 1.148598 0.304089 0.162922 -1.656514 1.078145 0.258540 -0.702784 
熟地黄 -0.132561 0.419715 -0.759336 2.593616 1.210177 1.371973 0.610768 1.674112 -0.008731 -0.380347 -1.601189 0.224955 -0.912588 1.466562 -1.016707 0.182064 0.789231 -0.865068 1.126378 -1.331765 -0.877737 0.902902 -0.439903 -1.291212 0.280503 0.781523 -0.821669 -2.126596 1.534163 -0.461470 0.947492 0.230615 0.788425 1.482364 0.550510 0.233068 -0.467434 1.208844 -0.595581 -1.050895 1.243390 0.657139 -1.279114 0.329437 -0.481268 0.757991 -0.659235 -1.162768 2.144136 0.952674 0.531594 1.168859 1.933000 0.615192 0.666364 -0.115586 -0.658460 1.676325 1.811518 -0.367483 -0.967243 0.077382 -1.439442 -0.763687 -1.076735 1.133860 0.204923 -0.473707 0.213452 0.581882 -1.127210 -1.077302 -1.074893 1.019070 0.089100 0.259436 -0.500650 -2.218299 -1.068193 1.322567 0.363275 1.402215 -0.645192 0.414820 -1.433493 -0.153858 0.242118 0.174755 -0.046877 1.282711 -0.601656 1.897070 1.173417 -1.037666 0.255784 -0.693318 -0.689209 0.581697 -1.572211 0.753589 
没药 -2.294708 1.698998 -0.688252 1.008641 0.610548 -0.691898 1.744001 2.134647 -0.666077 -0.005426 0.397545 0.709617 -0.779919 0.168465 -0.635125 0.538802 1.573379 -1.188223 -0.237357 -1.175575 -0.129027 0.669889 2.028797 -2.028485 0.520314 0.412049 0.666627 -1.139847 -1.564714 -1.214748 0.650080 -0.416666 1.117997 0.015721 1.320912 2.019404 0.291879 -1.406696 -0.524084 -1.595388 -0.040060 -0.388953 -0.169479 -1.218282 -0.019396 -2.044883 -0.882667 1.090007 -1.508523 -0.351528 -1.513086 -3.059859 -0.114159 -1.177861 -0.119019 0.133872 -1.705267 1.146247 -0.104061 1.142233 0.001072 -0.010749 1.778612 -1.764358 -0.838017 0.396489 -0.597141 0.748044 0.215380 -1.493700 -1.291418 0.465035 -0.696234 0.452131 -1.320571 0.866708 2.911617 0.863384 -1.353158 0.508048 -0.990615 -1.417528 1.158461 0.552283 -0.151300 0.221050 0.317205 0.946769 0.707342 1.160800 0.765346 0.387385 -1.819393 0.603189 -1.236716 -1.830908 -0.813592 1.331127 -1.423302 0.241972 
生姜 -0.640983 -1.166093 -0.478875 0.892054 0.397362 -0.160746 -0.346848 -0.560008 0.526016 0.572193 0.027507 -0.178661 -0.660483 0.137101 -1.157943 -0.224792 -1.298932 -0.060653 0.885130 0.535976 -0.230351 1.190389 1.280068 -0.947096 -0.644515 -0.442420 1.421238 -0.220555 -0.883403 -0.040831 -2.057550 0.596064 0.188596 -0.494693 0.727466 0.952649 -1.346872 1.177526 0.707653 0.260482 0.998910 0.262758 0.630909 0.021934 1.514346 0.287369 -0.314090 -1.486671 0.422665 0.813309 1.102784 1.776565 0.993639 -0.422880 -1.544247 0.046606 0.678793 -1.158690 -1.033220 -0.204117 0.432036 -0.645716 1.489625 0.423224 -0.387327 0.689597 2.209203 0.668694 1.096814 0.103856 0.715096 -0.124319 -1.862562 -0.452081 0.507651 -0.972110 -0.935449 0.402728 -0.568753 0.580262 -0.107060 1.058772 -0.362670 0.522026 0.301565 -0.506188 0.382337 -0.746168 1.547503 -0.029139 0.887638 0.988146 -0.126684 0.408088 0.307340 1.419891 0.518731 0.003481 0.685268 0.187319 
知母 -0.438766 0.661511 1.442531 -0.041469 -0.446689 -0.026846 0.067733 0.688266 -0.037328 -0.246839 -1.229281 -0.304459 -0.697858 0.295440 -0.599241 -1.074518 0.756630 1.359212 0.986242 -0.268931 0.235521 -1.407843 -0.319640 0.362161 1.222284 -0.099311 0.061077 0.919789 0.938360 1.210898 1.371327 0.645593 -0.706408 -2.127859 -1.231271 0.375634 1.377810 -0.590935 -2.635262 -0.052228 -1.312070 -2.522984 -1.307270 -0.849315 -0.052897 0.653933 -0.465198 0.310977 0.178181 2.433936 2.292355 0.559870 1.405047 0.162845 -1.219432 -2.243884 -0.294522 1.310651 0.760104 0.036427 0.990999 -1.366067 0.453648 0.910769 0.321729 0.979333 2.140577 -0.028530 -0.109020 0.748644 -0.329710 -1.725719 -0.754971 0.622550 0.703483 -0.237470 -0.892285 0.029908 0.210139 0.293290 -0.642983 2.032295 0.806575 0.433773 -0.631628 -0.879052 0.499273 0.390572 -0.269663 0.060178 -0.108035 1.735808 -0.166197 0.277025 -1.451858 -0.145144 -1.383750 -0.236520 0.892794 0.329290 
木通 0.574608 0.132351 -1.725735 0.807451 0.520832 -0.665690 -1.581687 -1.522807 1.474797 -1.601451 0.105278 -1.250092 0.333464 1.271388 -0.391275 -0.975222 1.097149 0.088531 0.868400 0.201478 0.844225 0.257480 -0.114507 0.504875 0.076650 -0.486147 -0.014728 0.085113 -0.453103 0.598066 -1.428053 0.067174 -1.229896 0.261616 0.307534 0.368028 0.618407 -0.277173 -1.130508 -0.608636 -0.577168 0.339577 0.838025 -0.227273 -0.396368 0.627577 -2.549134 0.300666 -0.826774 0.372270 1.164179 0.128188 0.488948 0.818945 -0.358688 -0.779173 1.619518 -0.506845 0.054222 0.772370 0.344792 -0.982808 -1.935793 1.008896 -1.239481 1.398089 0.801521 0.398740 -1.020910 -0.446493 -1.222329 0.214472 -1.164757 0.146182 1.611151 0.328992 -0.070274 -0.455957 -0.751681 1.607598 0.340956 -1.471377 0.636067 0.922964 -0.297685 0.520190 0.437821 0.032774 -1.455976 -0.368123 0.016626 2.251702 0.042492 0.691155 0.810967 -0.598033 -0.786257 0.282447 1.664779 -0.972030 
赤茯苓 -0.571294 -0.224325 -1.649063 1.070187 -0.089664 -0.766962 -0.257925 0.836165 0.917018 -0.040570 0.310320 -1.405267 0.289710 1.958005 -0.137221 -0.314621 1.240403 0.215321 1.444736 0.651665 -0.032786 0.363535 0.596775 1.167145 -0.294859 -0.723599 0.476274 0.884442 1.664713 -0.239764 -1.314963 -0.627844 -0.263288 -0.734275 -1.342309 0.810731 0.255319 1.877241 0.012906 1.006011 -0.224697 -0.586887 -0.545968 0.047621 -0.471779 0.073623 -0.406554 -1.509361 0.535438 0.950518 -0.627935 0.349652 1.456585 0.498623 -0.835325 -1.021596 1.438537 -0.521686 -0.049341 -0.291853 0.489736 -2.075891 -0.203688 0.582214 -2.403916 0.369972 0.470764 0.562060 -1.376206 0.973456 1.618038 -0.315350 0.960267 1.313021 -0.379018 0.781174 -0.292714 -0.932487 1.227250 2.407628 1.464006 0.371215 -0.160659 0.810143 -1.334401 -0.250630 1.843055 0.111195 -1.429654 1.588205 -0.702881 1.491949 -1.426548 0.158742 0.029527 -1.373004 -0.752203 1.592203 -0.021677 -0.939433 
独活 -0.628927 1.150314 -0.767902 1.698941 -1.068222 0.105414 -0.931609 -0.228157 0.206361 -1.548330 0.357924 -1.278771 0.469006 2.024440 -1.537606 -0.189027 1.353689 0.110126 -0.080633 -0.487591 0.592495 0.130908 2.182554 0.950948 0.701789 -0.544008 0.334722 -1.475627 -1.547240 -0.386372 0.315378 0.091813 -0.714685 0.707741 -0.658248 0.640830 -0.787836 -0.636527 -1.813758 -1.594969 1.062787 -1.765674 -1.696340 0.373229 0.923581 1.086503 -0.058698 -2.255070 0.806000 0.635899 0.344160 -1.421915 0.894330 0.511786 -0.596056 0.528370 0.569683 -1.348876 1.636988 -0.162553 0.296844 -1.784517 -0.650166 -1.909679 -0.604952 0.331581 -1.277474 0.294734 -0.635125 -0.280694 -0.344266 1.456591 -1.716607 1.703308 2.037621 0.787533 -0.406206 -0.161086 1.235990 -0.734322 -0.129398 0.381475 -0.016063 0.118038 0.210727 -0.487410 -0.476573 0.328392 -1.248280 0.497750 1.722541 -0.027537 0.405033 -1.157254 0.532347 -1.435385 -0.073134 -1.167503 -1.153306 -0.809679 
青皮 -0.606929 -1.142792 0.133298 0.159377 -2.174615 1.088039 0.430855 -0.230679 -0.416985 -0.816861 -0.687361 0.371334 1.697651 2.316393 1.234480 -0.584838 1.913880 0.901197 -0.435972 -0.562228 -0.298927 1.140013 -0.649983 0.713010 1.854259 2.087180 1.255545 -0.747622 -0.477172 -0.624815 -0.318728 -1.620702 -0.568109 0.389593 0.364754 0.994228 0.143902 0.634823 0.516670 0.739428 0.097957 -0.551467 1.046473 0.958614 -0.569108 -0.450213 -0.949332 -0.040453 -0.011779 0.310119 1.225515 -1.432510 0.229203 -1.195319 0.121137 -0.580063 0.923704 -0.790653 1.079929 -0.575406 -1.645327 -1.561067 0.046112 -0.441625 1.416143 1.536810 1.003455 -0.520061 -1.987951 -0.276430 -0.451596 -0.689945 0.032957 0.325453 0.072479 1.321565 -0.292466 -0.043717 -0.624774 1.532085 -0.366767 0.533857 0.919439 0.752154 -0.232748 0.795814 0.430454 -0.219651 0.253439 1.839906 -1.784593 0.589934 -0.104155 1.108266 -1.555607 1.433867 -0.721484 0.792937 -0.379993 0.069295 
玄参 1.193417 -0.059802 1.277023 0.457897 0.747633 0.480996 -1.801606 -0.464915 -1.097845 0.151045 0.140593 -0.433804 0.218119 1.593877 -0.177799 -0.943723 1.310352 0.486668 0.145841 -1.156425 1.149028 -0.656837 -0.100348 1.835621 -0.203435 0.351253 1.192353 0.984333 0.497375 0.371379 1.540504 0.115432 -0.802284 -0.760023 -1.491845 0.079659 0.006841 -1.569182 -2.783971 0.458610 0.697412 0.161124 -0.351640 0.667964 -0.607799 1.195087 -0.060978 0.374967 -0.692122 -1.162530 -0.455571 0.810147 0.353906 0.744579 -0.205395 -1.771138 1.447428 -0.476516 2.360041 0.240996 1.771116 -0.688943 -2.079373 0.750877 -0.294897 0.396593 -0.809269 0.666306 0.175495 -0.678065 -0.365310 -1.848536 -1.092928 -1.160505 0.886305 -0.047526 0.895952 0.101484 0.226050 0.559866 -0.543620 1.010437 0.541628 0.348547 -0.102283 -0.168608 1.334269 -0.269519 -1.182020 -0.338788 -0.249779 -0.225767 1.330675 -0.228842 0.312135 -0.206535 -1.884552 0.310581 0.715363 1.113731 
连翘 1.005632 0.338206 -2.150555 0.203412 -0.879036 0.390225 -1.064581 -0.279514 0.291254 -0.054076 -0.028498 -2.166625 -0.979579 1.220440 -0.086428 -2.102942 1.626395 0.123723 0.968826 -0.961090 0.199399 -0.044625 -0.163725 1.864071 0.663743 0.274855 1.116197 -1.316149 -1.105865 1.313662 -0.144979 -0.382997 0.090048 -0.268498 0.579158 2.482393 -0.595721 -2.058098 -1.049888 2.706049 -1.580415 -1.104119 -0.701724 -1.831946 -0.404561 1.512062 -0.491360 1.020609 -0.208071 -1.924432 0.721956 -2.286317 -0.034849 0.153309 -0.882121 -1.490587 1.562332 -0.108029 1.415084 0.732982 -0.107166 -2.054946 0.676183 0.564781 1.690881 0.366342 0.356293 0.301661 1.208945 -0.181742 -1.427867 -0.873374 -0.341884 -0.081620 0.506203 -0.168817 -0.539557 0.394390 1.680782 1.640791 1.968193 -0.555327 1.344066 -0.219032 -1.058684 -0.180887 -0.143315 -0.770557 -0.597267 -1.602705 0.754195 1.055866 -0.149869 -0.580382 -0.694072 -0.126974 -1.100133 3.357304 0.766136 0.106378 
丁香 -0.110239 0.476133 -0.920076 -0.874762 -0.050866 0.416294 0.612374 0.456800 0.676852 1.411199 0.442503 0.559264 1.442490 0.184716 -0.817009 0.367106 0.370286 0.087736 0.477960 1.398921 1.214396 0.011465 1.326548 -1.150281 1.325816 0.339040 -0.007240 1.431530 -0.260239 -0.571964 1.427871 -0.641771 -0.201499 0.974348 1.094447 -1.277763 -0.232488 0.500911 2.038161 -0.130170 1.126336 0.240295 0.190694 -0.417720 -0.110439 -0.155160 -0.216396 -1.369156 -0.028584 -0.426906 -0.808865 -2.104425 -0.773779 0.554355 -0.018874 1.358304 -0.625970 -0.306937 -0.603091 1.771676 -0.479245 0.003855 0.800353 -0.514423 -0.157438 1.403386 0.159294 -1.157790 -0.078214 -0.706351 1.041331 0.069268 -1.550260 -0.684155 -1.336054 -0.159950 0.543040 -0.850189 0.266858 -0.212836 0.278616 -0.049513 -0.131841 0.404306 -0.439650 0.139415 -1.508549 1.496621 -1.325422 2.124249 -0.161654 -0.175895 -1.159636 1.042027 -0.529201 1.689993 -2.413915 0.193097 -0.775201 -1.442881 
泽泻 -0.236897 1.796221 0.274699 0.457465 -0.591715 0.389779 -1.229598 0.244141 -0.253508 0.508991 -0.175536 0.893622 -0.057551 1.935356 -0.727286 1.154197 -0.402663 -1.397098 0.243386 0.511413 1.311107 -1.528134 0.322011 1.681103 0.776921 1.597972 -0.431228 1.123145 1.075054 -1.759829 -0.526911 1.732828 0.122296 -0.814880 -1.709167 -0.848770 0.264027 2.066404 -0.035387 1.182919 1.234241 1.192453 0.194171 -0.457513 -2.812477 0.522282 -0.736996 0.421044 2.200173 1.273393 0.783268 -1.024937 2.300199 -0.541586 -0.396938 0.258920 0.234893 -0.811094 2.100196 -0.564155 -0.868580 -1.074951 -0.147763 -1.466312 0.302017 2.091918 0.294106 -1.271055 0.343231 -0.554181 -0.709669 -0.862868 -1.085627 -0.508503 0.840845 -0.390809 -1.083899 0.376136 -0.033543 0.147687 -1.418079 -0.654227 1.385903 0.673113 -1.178313 -0.348877 -1.221758 -0.468271 -2.864463 0.543991 1.372247 1.520046 -0.353572 -2.286414 -0.345905 0.530391 -0.643687 0.289387 2.187637 -0.342573 
肉桂 -0.756591 -0.787469 1.493189 1.080864 -0.241582 0.377808 -0.185621 0.482368 -1.339483 -0.121419 -0.347682 0.473034 1.368351 0.115661 -0.360669 1.481504 0.365397 0.605675 -0.504216 -0.108085 0.258549 2.475359 -0.289863 1.139853 -0.461923 0.840890 0.363781 0.714509 0.004853 -0.267872 0.600611 1.620018 0.698638 0.724327 1.176052 0.747273 -0.668451 0.718076 0.020069 -0.416283 0.364711 -1.570275 -1.028285 -0.221350 -0.487426 -1.055758 -1.940807 -0.522984 0.456431 -0.180782 -0.170378 0.372789 0.236636 -0.075675 -0.136618 -0.835252 1.029803 -1.330204 -0.909615 -0.208453 -2.319923 0.329533 0.450120 -0.568624 -1.593533 0.751181 -1.041702 -0.434780 0.238707 -0.791500 -1.650280 0.633140 -0.414755 0.758170 0.444583 -0.113073 0.743931 -0.040056 0.235711 0.436477 -0.238661 -0.736091 0.664497 1.323035 0.526640 0.712555 -0.888347 0.492380 -2.283138 0.573877 -0.823509 0.352281 0.868313 -0.116543 1.097874 -0.267891 -1.314793 0.378605 -0.626628 0.816518 
远志 0.403662 0.292123 0.617034 0.895510 -0.483419 -0.942414 0.697848 1.316336 -0.023334 0.657367 -0.625820 2.702514 1.328051 2.730425 -1.038824 -0.853195 -0.152195 -0.500300 0.123579 0.756913 -0.629173 0.286201 -1.972961 0.610359 -0.085165 -1.770379 0.496885 0.174656 1.805750 1.022778 1.458860 -1.314977 0.936186 -1.745892 1.092196 0.137405 -0.150491 -0.099306 0.483213 0.156928 0.215081 -1.462354 -0.689455 0.859911 1.722722 0.618038 -0.641006 -0.247466 -0.095911 0.228047 -0.929372 1.350520 1.960628 -0.382352 -0.586195 0.763305 -0.322371 2.294936 2.362370 0.118301 -1.387377 0.031023 -2.604584 -0.179870 -1.607081 0.545118 0.257035 0.479022 -1.091717 -0.702426 -1.998457 -0.235808 -2.072257 0.954106 1.465215 -2.277685 0.097089 0.210404 -0.091390 -0.181472 -0.630218 0.406661 0.748748 1.589057 1.459050 -1.300880 0.482809 -0.559435 0.176969 0.099869 0.450886 0.133433 1.127303 -2.132877 0.726842 -1.423510 -1.668919 1.589272 -0.635672 0.084755 
陈橘皮 0.132523 -1.640400 0.442389 1.246042 -0.707690 -0.827416 -1.780344 0.626432 3.139313 0.981443 -0.768180 -0.097344 -1.086732 1.085819 -0.489146 -0.349632 -0.826810 -1.241364 1.239576 2.196709 -0.112046 -0.076222 0.924081 1.118132 1.138099 -0.735871 0.999127 1.348023 1.304489 0.116988 -0.077777 0.538851 -0.209131 -0.141963 0.263419 2.219548 -0.525457 0.470366 -0.272558 0.919577 1.982935 -0.933914 -0.789571 0.108634 -0.840925 1.273235 -1.083484 -1.479809 1.036262 0.296589 0.429423 1.097459 0.300405 0.799428 0.828719 2.536500 -0.677224 -0.308230 -1.231157 -1.237779 -1.383351 -1.473426 -0.397176 -1.149006 -1.339951 0.953144 -2.128438 0.964331 -0.751070 0.971983 0.884031 0.671514 -1.926169 0.430086 -1.221972 1.841313 1.008484 -1.920486 -0.457725 1.750409 0.824478 1.834850 0.097356 -0.053974 0.775378 0.339547 -0.808335 1.202430 -1.830922 0.285222 -2.076025 0.026001 -1.828586 0.304206 -0.575105 -0.670556 -0.480091 1.025828 -1.434506 -1.557050 
荆芥 -0.102609 -0.277590 -0.184937 0.465857 -0.934821 0.577717 0.334946 0.326855 -1.061711 -1.811750 -2.002543 -2.770673 -0.436999 1.256417 -0.037595 -1.613106 1.084349 0.675767 0.861712 -0.601765 0.378658 -1.600992 0.941358 1.602613 -1.085055 0.407687 1.042710 0.321538 -1.519234 -0.505372 1.362020 -0.633948 -0.858056 0.067414 -1.020152 0.322054 -0.146246 -1.539828 -0.318868 -0.401804 -0.829861 -1.114810 0.241880 -0.255886 0.053963 0.445985 -0.965320 -0.059304 0.675571 -0.838057 0.365853 -2.204445 1.158079 2.343686 -1.152061 0.199849 2.232433 -1.723553 -0.779383 0.028283 -1.113288 -0.420665 -1.249187 -1.409665 0.302896 2.761074 -1.064111 -0.503545 -0.037320 -0.345457 0.338640 -0.471764 0.106015 0.126225 0.943139 0.091899 0.588588 1.872733 0.200036 1.331356 1.118370 -0.288916 -0.039276 0.440657 -0.365789 -0.545526 -0.020030 -2.251975 -0.317313 -1.469398 1.729535 -0.779948 0.310270 0.509446 -0.727338 -0.526012 -0.110813 1.676820 0.013903 2.013406 
熟地 -1.228404 -0.340111 2.056935 2.201149 0.349273 2.435294 0.728455 0.498184 -1.129165 -0.721578 -3.160192 -0.708760 0.059256 1.765588 -1.766320 0.353615 0.223071 1.659248 2.312109 -0.738095 -0.771775 1.079022 0.305464 -0.727067 -0.358947 1.070647 -1.027298 -1.879005 0.984569 -1.262106 0.308438 -0.014968 1.714741 0.627424 0.440414 -0.560827 -0.198968 0.200855 -1.194592 -1.135262 0.974609 0.659483 -1.139993 -1.489242 0.241903 0.341921 -2.095319 1.150732 2.027643 0.150258 0.444507 1.738096 2.339999 -0.387202 -0.066054 -0.687747 0.843623 1.693566 2.366356 -0.332862 -2.008109 0.422841 -0.442748 -0.451804 -0.554037 0.482453 0.252668 -2.032056 0.353091 0.082945 -1.425327 -1.617135 -0.678925 1.183274 1.324688 0.477637 -0.415930 -0.805139 -0.975453 0.915001 1.490634 0.587581 0.298633 0.453198 -1.163825 -0.092981 0.604610 -1.202048 -0.054439 1.933804 0.531237 0.274878 1.013879 0.060355 -1.087277 -0.382374 1.028517 0.064035 -0.737212 0.103719 
香附 -1.913113 -0.759480 1.052573 1.037521 -0.287929 -0.048202 0.266291 0.857482 -0.250890 -0.816899 -1.310227 -2.056853 1.930396 2.642248 -0.103849 1.253866 0.610638 2.166834 0.260738 0.171691 -0.840347 0.886612 0.905408 -0.410570 0.959379 0.115157 -0.012759 1.907828 -2.771262 -1.487779 -0.056267 0.247921 1.352878 0.427141 0.930400 0.999211 -0.567679 -0.624279 -0.554277 0.836314 -0.630344 -1.520402 1.166862 0.988458 -0.397531 0.306674 -1.416723 -0.625460 1.784341 0.158549 0.872446 -0.568332 0.590746 -1.974421 -0.038270 -0.179986 0.622979 -0.585458 0.053978 -1.196714 0.316644 0.657200 1.625214 -0.637482 1.703503 1.461776 1.553177 -0.559549 0.128922 0.074314 -1.169583 -1.913803 -0.520533 0.546736 1.589111 1.072453 -1.534917 0.446736 -1.384482 0.254300 -0.243070 0.247982 -0.359984 -1.583946 0.349278 0.760113 -0.137798 0.670763 -1.147652 0.039416 0.963280 -0.340107 0.724519 -0.181971 -1.417266 -0.196720 -1.501486 2.065017 1.269388 0.050213 
桃仁 -0.098635 -0.373335 0.545800 3.042313 0.735744 -0.126389 -0.444081 0.345132 0.162780 -0.674799 0.714636 -0.562376 -0.285399 -0.483681 -0.393294 -0.582770 0.672071 0.357900 0.107469 1.719621 1.352599 2.074801 0.442226 -0.590216 0.637686 0.480859 -0.949255 -1.845552 0.545255 -0.078608 -1.000103 -0.819893 -0.316680 -0.139492 0.728560 0.435449 -0.993599 0.998416 -0.276374 -0.836114 0.423192 -0.089091 1.696613 -0.441961 -0.453768 1.403295 -0.250672 -0.600172 0.403423 0.282344 0.035470 -0.245859 0.833749 -1.868511 0.142068 -0.652511 -1.576375 -1.656262 -0.115564 0.130914 -0.082066 -1.464274 1.236698 -1.317206 0.164928 0.174945 -0.393892 -0.495853 -0.066384 -1.564711 -0.230900 -0.326565 -0.511317 1.089233 -0.878934 -0.268854 -0.754181 0.083579 -1.318290 -0.425580 0.791377 -0.948432 0.805757 0.869843 0.112620 -1.042716 -1.587600 0.194378 -1.794748 -0.225201 -1.057807 -1.280788 -0.944375 0.188802 -0.527767 -1.860653 -1.225559 1.514441 1.219408 0.833417 
山药 -1.641426 -0.472863 1.655067 0.579003 -0.538867 1.504716 -0.719024 0.398712 -2.226309 1.610507 -2.343456 -1.126172 1.997121 0.755093 -0.033948 -0.227684 0.191721 0.574370 -0.363142 -0.115367 0.744141 -0.201308 0.542851 -0.370492 0.530277 0.262381 -0.229262 -0.790581 0.743502 -0.886908 1.018051 1.369440 2.910881 -0.129482 2.777277 -1.882678 0.133986 -0.794115 0.583211 2.770577 0.397415 -0.534156 -1.364860 -1.505398 0.091352 -0.989451 0.027188 0.151322 0.006378 -0.007529 1.349618 0.220863 2.813397 0.830217 -1.468468 0.526717 -1.511958 -0.437081 0.257436 0.088906 -0.338670 -1.322450 -0.932852 -0.805873 -1.505707 2.103365 1.029530 0.152367 -0.638566 0.187308 -2.244843 -0.743379 2.239454 0.488952 0.594759 -1.765589 -0.059576 -0.874360 -2.158794 -1.235033 -0.139020 0.326505 0.397605 -0.512332 0.196218 0.179165 0.303267 -1.101432 -0.945918 1.203883 0.092701 -0.159116 0.951215 0.212258 0.126675 -0.401100 -0.496446 -0.141477 -0.563307 -2.103506 
桑白皮 0.302405 0.564117 1.327781 0.039463 0.209932 -1.539498 -1.174333 0.490872 1.528228 -0.009726 0.021619 -0.798072 -0.738011 -0.175032 -0.961689 1.087843 0.955068 -0.201539 1.254641 -0.437302 -1.165194 -0.731544 1.244388 2.594489 0.344428 -0.232691 0.986236 0.600988 1.116141 -0.738246 -0.922477 -0.029917 0.225948 -0.690628 -1.379799 1.861775 -1.523916 0.455326 -1.986582 0.492393 -0.370077 -0.201201 0.597746 -0.035952 0.398651 0.001058 0.503165 0.393504 0.272483 0.912526 -0.173108 1.618522 -0.366579 0.725574 1.453939 -0.012270 0.818103 -0.190182 -0.264858 -0.615270 0.510246 -1.959596 -0.408184 0.375503 -1.252329 0.317631 0.417985 1.378693 -0.833292 -1.798282 -0.377137 -0.508308 -0.641322 2.089483 -1.350316 -1.167894 -0.464940 -0.092722 -0.432003 1.735038 -0.663335 0.528827 -0.029602 -1.013117 -0.716335 -0.123933 0.453524 2.682844 -0.947269 1.076341 1.877784 0.195426 0.453693 0.387923 0.065590 -0.077256 -1.435934 1.708295 0.408022 0.217730 
沉香 -0.742286 0.980789 0.901428 1.709397 -1.129203 1.019001 0.799819 0.579545 0.457565 -0.775268 1.541094 0.095197 2.576819 -0.692034 1.308472 0.088999 -0.357782 -0.875274 0.625838 0.974913 1.535002 1.543266 1.409758 -0.810507 0.562283 1.473531 0.918658 0.887457 -1.065035 -1.513872 0.552025 -0.351979 0.377834 -1.499902 2.047916 -0.501003 -1.546475 0.496113 1.376415 -0.462948 -0.152829 0.281812 0.192134 0.977188 -0.138410 2.088380 -1.340154 -0.450804 -0.520793 1.142079 0.577872 1.037666 0.380905 -0.040367 0.589784 -1.271276 0.789073 0.421868 0.467405 1.802399 0.059172 0.920466 -0.143090 -1.384250 -1.254168 1.702226 -0.126357 -0.279208 0.057413 -1.785082 0.877666 1.874384 0.186998 0.299211 -0.546242 0.847928 0.125831 0.115662 0.229993 -0.118181 -1.811515 1.441445 -0.622615 0.874464 0.332636 0.471238 0.715184 0.145991 -0.415019 1.506710 -0.168097 1.425610 -0.324313 -0.443076 -0.589130 -1.701388 -1.921642 1.279246 0.110207 -2.148348 
麦冬 -0.457203 0.426434 1.503416 0.709236 -0.355153 2.006826 -1.825896 -0.398256 -1.846931 0.101735 -2.215398 -0.167015 1.454299 2.269623 -1.295473 0.245690 -0.186375 2.393734 -0.808041 -2.359757 0.697219 0.036593 0.091669 3.047426 1.725668 -1.026480 0.315787 1.245711 1.427411 -0.117770 0.553413 0.105190 0.985173 -1.370134 0.574489 0.195412 -1.018764 0.473726 -0.462603 -0.373181 0.469576 -0.556953 0.127309 -0.424527 0.188087 2.035276 -1.962850 0.885400 -0.635818 -0.316618 1.082203 1.823720 -0.065543 0.484585 -1.537035 0.801250 0.337616 1.797873 1.444991 0.386559 0.561183 -0.570148 0.479872 0.109347 -0.991779 1.346109 2.580412 -1.070992 1.705580 0.543978 -1.262002 -1.229913 -0.115881 -0.031398 0.747751 -1.008869 -2.161426 -0.333708 -0.934421 -0.495733 0.260066 0.487967 0.070890 0.110514 -1.213134 0.286273 0.384075 -1.332365 0.381598 -1.555580 1.072414 -1.047744 -1.715211 0.702841 -0.683799 -1.241935 1.512964 1.024082 2.190429 -1.710946 
吴茱萸 -0.591355 0.501494 0.180410 0.706099 0.850617 -1.000841 -1.575034 0.136131 -0.373048 0.290697 -0.235632 1.065719 -0.773840 1.655804 -0.115924 1.293333 -0.446242 -0.350740 -0.187737 1.448360 0.527869 0.228723 1.007557 0.904764 1.673275 -0.097102 -1.246546 0.613172 0.230592 -0.192318 0.769201 -0.219506 -0.256079 0.442086 0.290945 1.353500 0.405877 -0.070988 0.883716 -0.772641 0.651832 -0.915267 0.422734 1.945839 -0.342930 -0.530757 -0.649131 -0.623708 0.309949 0.023776 -0.735690 0.769537 1.270262 0.094883 -1.110196 -0.037573 -0.095499 -0.116487 -0.702136 0.033477 -1.092647 0.111448 -0.346478 -1.673381 0.049792 -0.135615 -0.423051 -1.669963 -0.853744 0.414796 0.839847 0.771327 -0.345572 1.659046 -0.173653 1.054803 0.413173 0.473000 -0.505667 1.212207 0.721607 -0.215107 0.217535 0.123819 -0.419288 -0.553931 -0.771623 -0.001156 -1.177245 1.573243 -1.579434 1.037429 -0.405176 -1.425196 -0.549569 1.195185 -1.662252 1.281567 -0.344711 0.201128 
天麻 -0.947725 2.139174 -0.641033 0.568929 -1.924777 -1.352123 1.400305 0.862937 -0.030014 -2.127559 0.449361 -0.702477 0.255017 1.327020 -0.936996 -1.066268 0.834182 1.005950 0.077816 0.246058 0.227679 0.542943 2.843803 0.918841 -0.664488 -0.100226 1.616351 -0.340216 -0.536842 -0.505897 0.528802 -0.416056 0.870994 0.157891 -0.226002 -0.810651 -2.327999 -1.472574 0.621706 0.823726 0.929886 -0.629416 -0.848121 -1.469373 0.797684 0.387868 -0.316467 -1.358509 0.135088 1.175857 -1.117170 -1.841503 0.997853 1.222167 0.282586 -0.024836 0.462084 -0.350379 1.462539 -0.334085 -2.320035 0.706657 -0.812750 -0.686216 0.313040 -1.015045 -0.615031 -0.951842 -0.993056 1.233351 -1.872421 2.247681 -0.478482 -0.355715 1.935091 -2.493859 0.591844 -0.063569 0.666017 0.840992 1.756234 1.156898 -1.147590 0.963466 0.954033 0.313842 1.003755 2.802502 0.100221 0.071052 1.568117 -0.226350 0.627765 -1.751419 0.231942 -0.721748 -0.027616 1.014643 -0.316111 -0.618204 
茯神 -0.242577 -0.251324 -0.548815 0.209680 0.367851 0.187406 0.674303 0.932101 -1.916458 0.096803 -0.304021 0.189435 0.741138 2.780945 -0.717236 -0.399934 1.904768 -0.129842 0.720501 -0.342685 -0.424656 0.366592 2.128793 0.783694 -2.040963 -0.645879 0.294374 0.924576 2.522536 0.532591 0.763616 -0.606475 1.427147 -1.694980 -0.227298 -0.577178 -0.569376 1.484255 -0.412796 0.666140 0.149687 0.439375 -0.425693 -0.979733 -0.711830 1.265431 1.290505 -2.239197 2.175488 1.128199 -1.350370 0.213090 1.873479 -0.341274 -1.913520 -0.932741 0.366911 0.439730 1.461239 0.807344 0.525959 0.095541 -0.141990 -0.708601 -1.967615 -0.186610 0.267860 0.210200 0.369275 0.906729 0.373793 -1.409682 0.570721 0.720555 1.621736 -1.562190 -1.787213 -0.244677 1.180977 2.270017 0.214134 0.656280 -0.217224 1.417517 0.287762 -1.532995 1.529420 0.270612 -0.330717 -0.504821 -0.193944 0.214285 -1.431338 -0.627260 0.664261 -1.382532 -0.246087 1.433176 -0.196424 -0.880111 
枳实 0.391010 -1.240635 -0.138185 -0.504863 0.380193 0.306317 0.582984 -0.000381 1.296698 0.771420 0.564906 -0.050615 0.343840 2.544375 -0.165272 0.778868 -0.540301 -0.248571 0.241732 -0.358853 -0.649668 0.425345 0.832552 1.458185 1.150316 0.060116 1.142628 0.862474 -0.141728 0.215234 -1.095321 -0.960588 -0.767751 0.771705 -0.805085 0.530246 -0.494380 -1.027762 -1.306687 0.289952 -0.065664 0.473138 0.299126 0.746024 -0.938953 -0.073294 -0.137334 -1.617191 0.706245 0.860366 0.606766 0.175839 1.279035 0.405593 -1.705753 0.267128 -1.003558 -1.046528 0.973742 0.762582 -0.581142 -1.408342 0.898294 -1.536362 -0.225193 -0.845935 1.402315 -0.848131 -1.193184 -0.696436 0.767266 -0.616407 -0.985283 1.181320 1.297334 -0.511262 1.448281 0.859695 -1.822212 1.286617 0.313221 -1.156294 0.615752 0.751110 1.202174 -0.561840 0.142796 -0.247161 -1.264481 0.035070 -0.563881 0.489116 -0.641986 0.355646 -0.730240 0.761135 -2.127106 1.488754 1.691767 -0.881021 
杜仲 -1.182184 -0.299226 1.848302 2.731717 0.304305 1.328415 0.163575 0.500065 -1.208538 -0.148198 -2.072808 -0.695072 -0.816465 1.330230 -0.704323 1.513757 0.340080 -0.536965 -1.065809 -0.473503 0.449419 0.397480 -0.133276 0.543597 -0.010682 -0.413857 -0.308839 -0.233533 0.437580 -1.821976 0.175101 0.679413 1.702894 0.857972 -0.080716 -0.162423 -0.470217 -0.305587 0.448668 -0.116441 0.259189 0.521734 0.529330 -1.088697 1.448953 0.966303 -1.454319 -1.590265 -0.124669 2.712807 -0.898227 -0.705231 0.683346 -0.578406 -1.706694 0.495316 0.208255 0.197880 1.161448 -1.178858 -0.244197 -1.769429 -0.697837 -1.437135 -1.305982 1.060321 -0.669720 -0.859475 1.847057 0.415166 -1.265869 -1.369139 -0.567565 2.225886 0.901710 0.405829 0.150842 0.489425 1.098149 0.642156 -0.289547 0.550742 -0.381493 1.388281 0.562121 0.343501 -0.732897 0.702084 0.004913 2.098924 0.975166 1.075319 1.045133 -2.206694 -0.793947 -1.590326 -1.044945 -0.977696 0.625828 0.318681 
地骨皮 0.735753 -0.178725 1.349873 1.080573 0.120054 0.198664 0.086950 -0.709798 0.961698 -0.833367 -0.652972 -1.370212 -0.529571 0.111338 -0.123117 -1.119153 0.470899 -0.489334 -1.292284 -0.774446 0.736360 0.269720 0.385648 1.513469 -0.791770 -1.054986 0.320609 -0.490697 0.630197 -0.291197 0.485171 1.164614 0.132569 -0.238150 0.039513 0.571348 0.946580 0.159878 -0.126580 0.006129 -1.038582 -0.320450 -0.838947 -0.049600 -0.426069 0.477623 -0.192385 0.150177 0.060449 0.105424 -0.102084 0.130037 2.299108 0.633527 -0.248540 -1.037925 0.013695 0.625965 1.265271 -0.634232 0.677093 -1.495424 -0.466324 0.085766 0.200895 1.041205 -0.830168 0.072552 0.058514 0.133005 -0.113324 -0.672811 -0.056287 0.233395 -0.088228 -0.789530 -0.647155 -1.346325 0.606733 0.450145 -0.097395 1.044567 0.692463 0.568414 0.202188 0.671395 0.034419 -0.715077 -1.090837 -0.643238 -0.792325 0.709199 0.021346 0.955709 1.208405 -1.085202 -0.523879 -0.084754 1.437381 0.348519 
巴豆 1.846289 1.631518 0.765602 -0.864772 -0.414524 -0.878462 -0.860614 -1.854801 -0.815145 0.914851 1.099594 1.460804 0.051953 -1.215583 -0.528721 0.485882 -0.428129 -0.110540 0.746179 1.085222 -1.101512 0.987094 1.255560 -1.516253 1.137247 -1.196306 0.621108 -0.954235 0.215161 -0.508251 -0.908852 -1.328941 -1.328580 -0.486967 0.379100 0.137892 -0.035265 -2.528579 -0.294630 -0.544651 0.939119 -0.338840 0.417003 0.743919 -0.218537 -0.421349 0.654100 -0.171219 -0.748626 -0.547121 -0.020352 0.065323 0.383641 -0.512011 0.914992 0.499976 -0.700353 -1.812779 -2.094514 -0.453583 -0.366364 -0.418980 2.112206 0.051633 -0.996448 -0.404106 0.896559 -0.537034 -0.818715 -0.184628 0.484878 1.165732 -1.002154 0.589814 -0.185401 -0.367973 0.390939 -0.470385 -0.872464 -0.056012 -0.333166 -2.292232 -0.728935 -0.330497 -0.302814 0.033468 1.517058 0.611733 -0.640430 -0.087628 -0.763551 -0.374489 -2.226720 -1.702064 -0.748888 1.252371 -1.484404 0.357795 -2.011004 1.347252 
前胡 1.696678 0.764178 0.298839 1.368784 -0.103353 -0.459438 -0.961532 0.213228 1.182283 -0.240723 0.561134 -0.776073 0.086068 2.263184 -0.961315 -0.086057 0.800219 0.137826 -0.220913 -0.260959 0.397878 0.767004 1.118028 2.188191 1.040877 -0.487124 1.674044 0.298282 0.007270 -0.713051 -0.698022 -0.271377 -0.148758 -1.946074 1.257661 1.646098 -0.739316 0.513393 -1.841876 0.389195 -0.032188 -0.038083 0.352474 -0.759630 0.161990 1.309120 -0.272042 0.619300 0.300546 0.850179 -0.696685 0.266477 1.175714 0.835559 0.265066 -0.491888 0.251486 -1.405289 0.836913 -0.492788 -1.290038 -0.901014 0.144781 1.368402 -1.322241 0.481225 0.865548 1.593575 -1.849319 1.175831 0.882700 0.178629 -1.181702 0.346276 0.157790 -0.323935 -1.074720 -0.130102 -1.011283 2.240088 1.520340 3.043636 -0.593118 0.095977 0.325687 -0.625424 -0.468352 -0.111692 -0.341210 -0.356451 0.714962 0.124126 -0.255690 2.067171 -0.813116 0.253732 -1.472575 1.779938 -0.185550 0.473953 
白芍药 -0.927585 0.145760 -1.565231 1.054278 0.224352 2.004894 -0.010549 0.287529 -0.299341 -0.619883 -0.380846 -0.800792 -0.680198 1.248211 -0.833670 1.098741 1.120438 -0.302129 -0.895692 1.141725 0.283808 -0.816294 -0.681784 0.405029 -0.642416 -0.582021 0.029158 0.144691 1.541498 -1.574905 0.607098 0.976882 0.927043 0.720737 0.563012 -0.324063 0.239206 0.026980 0.533833 0.995181 0.633417 -0.909557 -0.910892 1.431175 0.445801 2.254163 0.525183 -2.398547 1.008369 -0.418253 1.052761 -1.641874 1.369802 -0.163488 0.213357 -1.547547 -0.686919 -0.232285 -0.071266 -0.937315 -1.607978 -0.541363 -0.316847 -0.934297 -0.317464 0.847570 1.291885 1.263009 -0.530016 -1.493817 -1.132265 -1.026209 0.157805 1.539010 -0.874963 -1.536796 0.625033 -0.550654 -0.650373 0.732902 0.409073 2.612549 0.755764 -0.660606 -0.691663 -0.565267 0.513789 1.413304 -0.856689 0.591842 -0.306397 0.528533 0.099325 1.132692 -1.017565 -0.922029 -0.286683 0.894379 2.237559 0.566898 
阿胶 -1.085142 -1.418684 0.231525 0.975821 -0.076228 0.901286 0.609138 0.121650 -0.877260 1.608932 -1.660784 1.761566 0.587815 0.720955 -1.948719 -0.252424 -0.519110 0.857589 -0.101931 0.563466 -1.781111 0.755904 0.411809 -0.511978 -0.172183 -1.043595 -0.492672 0.792869 1.589134 1.416994 -0.106781 0.933568 0.547920 0.023379 -1.288575 -0.438499 -0.604178 -0.271730 -1.224188 1.493526 -1.039640 -1.402229 0.697287 0.377110 0.885712 0.543082 -0.542274 -0.884331 1.620322 1.815959 0.515631 1.406879 -0.132773 0.099468 0.720114 -0.633879 0.736975 0.877025 0.966636 0.070442 0.399496 0.479725 1.022800 -0.853363 0.009846 -0.154334 -0.972661 0.756672 0.160345 0.270397 0.023211 -1.168910 -0.497145 0.506390 -0.002723 -2.002492 0.258255 -0.436583 -1.193093 1.914790 1.586999 0.498018 1.680044 0.299236 -0.080811 1.123002 -2.026138 0.613664 0.688162 -0.098352 0.049312 0.544640 0.267651 0.989358 0.382408 -0.664652 -1.313036 0.106497 -0.364256 0.674080 
薄荷 -0.563692 -0.683575 -1.994801 0.109562 -1.969429 -0.000644 0.157342 0.715301 -0.463394 -2.130004 0.131170 -1.687405 1.265689 1.533635 1.680180 -1.423323 0.159761 2.720642 -0.389370 -0.927510 -0.913868 -0.327107 0.891137 0.410849 1.211929 0.662816 0.910798 0.382202 0.832468 -0.606205 1.336053 0.340315 0.299141 1.159608 -0.932989 0.008626 -0.826121 -1.775788 -1.434755 -0.511808 -0.121043 -1.478753 -2.136511 -0.626248 -0.680674 0.956997 0.574969 1.183784 -1.067636 -0.153810 -0.849074 0.099828 0.291857 -0.438820 -1.194589 -0.841448 1.836059 -1.030980 0.930815 0.022117 0.465381 -0.666348 -0.313511 0.711736 0.037899 0.661613 1.146271 -0.815561 -0.339920 0.904457 -0.123676 -1.145510 -1.497672 -0.551501 -0.011991 0.836380 0.036801 0.826284 -0.644941 1.358408 0.663960 0.088439 -1.111365 -0.890537 0.287528 1.411741 0.387716 -1.078929 1.009141 0.285292 0.296863 -0.869014 0.612723 3.093926 -0.170605 1.212990 0.353078 0.551501 1.410666 0.256788 
肉苁蓉 -0.197798 -0.530624 0.996430 0.585649 0.901445 0.050614 0.130171 0.670110 -1.607430 1.084531 -1.264437 -0.421558 -1.558231 1.466429 -0.084879 0.035020 -2.058950 -0.594156 -0.415251 0.500214 0.013763 1.630240 0.130085 -0.163301 0.246490 -0.158368 -2.042268 0.269341 1.451571 -0.925483 0.298055 0.947527 1.121522 0.617335 0.599238 1.046670 -0.621259 0.815998 1.356291 0.250181 0.293577 0.255810 -0.584702 0.657604 -0.061199 0.812713 -0.352559 -2.349492 -0.616717 0.924151 0.314442 1.476179 2.110063 -0.410180 -1.446334 0.043775 0.715487 0.325310 0.315194 1.720028 1.110378 -1.777221 -2.161905 -2.029494 -1.333764 0.838373 -1.352785 -1.349950 1.111437 0.319883 -1.265480 -1.111429 -2.264056 0.605582 0.230782 0.047276 -0.078943 -2.385397 1.534354 -0.912177 -0.385154 1.414650 -0.446721 0.473331 0.275698 1.250150 0.012986 0.130258 -0.465616 0.896803 -2.535288 0.978994 0.204417 -2.566502 0.993133 0.229884 -1.309648 -0.658718 -0.795099 -0.464279 
牛黄 -0.503891 0.172817 1.499032 -0.815587 -0.668938 -0.329498 1.642002 -0.370438 -0.102942 1.300047 1.903701 0.888451 -0.141513 0.077968 0.320088 -0.819915 0.760508 0.767631 -0.901746 0.670190 0.684375 -0.356865 2.490455 -0.602120 0.321691 -0.817427 0.844677 -0.560948 0.895208 1.716246 1.074628 -0.344291 -0.359521 -1.180567 0.161784 -1.473082 -0.574900 -0.221740 -0.226246 0.873947 0.860846 0.576370 0.012291 -1.503653 0.376866 1.959502 0.860143 -0.147358 0.430530 0.529953 -1.479174 -0.844250 -0.891246 1.032059 0.806597 0.119471 -0.695981 -0.318337 1.732669 1.445388 -0.085145 -0.091048 -2.881192 0.706659 -1.743539 -0.755651 0.082472 1.039210 0.535443 -0.376058 0.769193 1.616540 1.049719 0.652169 1.167292 0.787751 0.492008 -0.067493 -0.608750 1.639346 1.025407 -0.877692 0.212390 0.350120 0.754306 0.249529 1.543710 0.861059 -0.472730 -1.913174 -1.027175 -1.345612 -0.046429 0.858842 0.190958 -1.410617 -1.079698 0.064926 -0.940532 -0.595449 
砂仁 -1.717234 -1.165365 0.275083 0.993023 0.162870 2.895471 -0.702297 0.835653 -0.606374 0.286954 -1.865883 1.059386 1.780642 0.657879 0.639659 1.832819 0.946031 0.838221 -0.315906 0.075960 -0.774564 1.236803 0.092602 0.614125 -0.647469 1.206986 -0.069642 0.849285 -1.380286 -0.726649 1.706482 -0.492866 0.214738 0.516914 1.081794 0.389661 -0.757221 1.498990 2.326550 1.317102 1.270400 0.956805 0.347422 -0.478009 -0.258005 -0.438551 -1.551246 -0.132955 0.082373 1.003806 2.005286 -0.847610 1.007646 0.184391 0.153026 1.305026 0.624624 0.410787 0.177609 -0.205984 0.191496 0.557766 -1.103248 0.477072 -0.189983 0.985627 0.188380 -0.826141 -1.147096 0.124842 0.135334 -0.637352 0.436844 1.003145 0.696163 0.797554 -1.463991 1.311995 -0.883506 1.578959 0.180868 -0.217709 0.775812 0.198936 0.049043 0.966209 -0.507408 0.249748 0.211913 0.171772 0.761259 1.037561 1.503658 0.701645 -2.255531 1.144328 -0.137414 2.006263 2.330651 -1.345667 
神曲 -0.448790 -0.458410 0.626970 1.169169 -0.265289 -0.035807 0.457424 -0.434969 1.403914 1.730742 0.341516 1.430965 2.019408 3.651274 -0.170195 1.274334 1.604216 -0.679390 0.453096 2.323338 -1.361460 1.022514 -0.106307 1.474031 2.285882 1.469660 0.444678 0.003231 0.689651 -0.417973 1.083945 -0.899371 0.617250 1.357957 1.760703 0.481152 1.185399 -0.262884 -0.642676 1.006053 -1.101402 0.350794 -0.662084 -0.564260 0.407321 -0.166957 -1.483397 -0.406247 0.210241 -0.573320 0.940028 -0.462197 0.806000 0.248741 -0.255318 -1.431415 -0.918806 -0.548708 -0.462868 0.126320 -1.154665 0.981055 0.515348 -0.380681 -0.306327 0.166566 1.540923 -1.765523 -2.896095 1.382410 0.907416 0.211294 1.006880 -0.704116 1.105923 1.110075 -0.846426 0.173380 -1.182213 -0.366819 -0.394403 0.401642 -0.194224 0.052906 -0.198555 -0.444328 2.093860 -0.312883 -1.596023 0.922773 0.046979 1.819045 -1.981249 1.690755 -0.715289 2.337395 -0.152496 0.768173 1.721182 0.651233 
车前子 -0.251955 0.385754 -1.755946 1.117954 -0.272799 -0.565019 -0.602133 0.611633 1.519792 0.616114 -0.894498 -0.861833 -0.187432 1.947285 0.288093 -0.503797 -1.835254 0.088758 0.233234 0.057543 0.513226 -1.728369 0.230723 0.976444 -0.373302 0.903216 -1.630162 -0.485304 0.793211 0.400659 0.806783 -0.563639 1.047798 0.005105 -2.083131 -0.066048 0.624275 0.970893 -1.084186 0.320786 -0.530589 -0.385744 -0.039986 0.183883 -1.011916 0.074809 -0.221381 0.990284 -1.615594 1.097044 -0.646333 1.351843 1.729521 -0.391014 -1.145134 0.173341 -0.891556 -0.411690 1.736485 -0.159732 -0.811880 -2.014873 -2.621799 -0.520278 -0.893272 1.578817 0.814111 0.102012 0.370365 -1.381072 -0.292593 0.003906 2.457257 1.592313 -0.138536 0.162505 -2.702956 0.056646 -0.993299 0.800551 -0.748603 0.395643 0.495181 1.387508 0.503909 0.628440 0.752899 -0.197808 -0.021741 0.838730 0.180654 1.225266 -0.072297 -0.758276 -1.203028 -0.359588 -0.730759 2.113116 1.487847 -0.670582 
羚羊角 0.582305 -0.396041 0.912825 1.979046 -1.026672 -0.982145 -0.357671 1.151365 0.288562 -0.963346 1.787699 -1.687121 -1.131114 1.318240 -0.936681 -1.496986 1.076098 1.354789 0.299887 -1.446908 0.813997 -0.019530 0.630226 1.337659 0.171378 -0.892942 0.679284 -0.856694 0.976582 -0.032476 -0.600654 -0.253460 -0.955321 -1.247248 -0.072213 -0.690582 -0.506894 0.327593 0.257571 1.418770 -0.024994 0.434076 0.060664 -1.021083 0.603135 0.216380 1.033329 -1.470708 -0.005886 0.967379 -0.574029 0.339557 1.092622 1.675321 -1.193689 -0.237655 0.137640 0.844235 2.385239 -0.368990 -0.082560 -0.633530 -2.305251 0.100706 -0.371761 1.098263 -0.182750 1.885958 1.165745 0.276596 0.866717 2.155811 0.338107 1.182796 0.666903 1.081846 1.892372 -0.828629 -0.976616 -0.115204 0.553567 1.305444 -0.473304 1.161103 0.920470 -1.042104 0.148364 0.292627 -0.842724 -1.346148 -0.616970 -0.252366 -0.462801 0.526007 0.190974 -1.415431 -0.853194 1.211446 0.052227 -0.786261 
炙甘草 -1.659971 -1.760321 -1.075593 1.238025 -0.268591 1.383878 -1.844344 -0.813812 -1.464978 0.540913 -0.126856 -0.280288 1.237601 1.023379 -0.502175 1.604693 0.834687 0.994388 -0.396277 -1.041190 -1.392715 -0.652867 1.443353 1.303109 1.158961 1.337182 -1.233827 1.037281 0.054802 0.066751 -0.359881 0.363734 0.815999 -0.390790 1.427410 -0.950995 0.322962 0.137594 -0.058259 0.304615 -1.483720 1.308273 -1.647057 0.997047 -1.165205 1.801139 -0.283834 0.638436 1.908520 1.002884 0.467776 -0.294772 1.342013 1.352101 -0.111330 -1.007905 0.798751 -0.022289 0.943164 -0.960621 -2.538271 -0.905012 0.120771 0.009135 -1.513951 1.703525 1.726846 0.169033 -0.980298 -0.660846 -2.025075 -0.562658 -0.245669 0.505136 1.042071 -0.477723 -0.456398 1.021845 1.161166 0.648090 0.812485 0.911020 -0.125661 -1.136478 1.548381 0.322960 1.157762 -0.207360 0.682202 1.549667 0.201747 0.671419 -0.640272 -0.390868 -1.865787 0.746309 0.398673 0.276508 -0.986669 0.727064 
滑石 2.611133 -0.014997 0.421282 -1.041148 -0.283370 -0.563656 -0.438018 1.366431 2.370873 0.157460 -0.460035 0.366186 1.638909 1.299199 1.255062 1.057922 0.140687 0.935411 -0.010910 -0.377938 -1.513139 -0.988838 -0.090347 -0.476802 0.780322 -0.337745 0.802752 -0.049568 -0.220353 -0.284684 0.296753 0.605980 -0.003407 -0.743319 -0.948815 0.464476 -0.239813 1.062116 -1.564668 0.905494 0.853236 0.739933 -0.539525 -0.956792 -0.916289 0.059381 -0.574266 0.707913 0.467066 -0.306366 0.056274 -1.468287 -1.046288 -1.719108 -0.875407 -1.664078 1.429677 -0.817037 0.967295 -0.650190 1.131079 -0.607183 -0.890605 0.690571 -0.248667 0.505195 0.633840 1.459117 0.090044 -0.260245 -0.195576 0.544956 0.997964 -0.559834 0.136062 0.093848 1.207797 -0.041643 -1.224355 0.054004 1.083008 -1.768021 0.181241 -1.004029 -0.573712 1.608642 0.255443 -0.175086 -0.760099 0.397905 0.846892 0.747022 -0.641187 0.275365 -0.101981 0.906846 0.478276 0.699404 -0.493109 -1.344713 
红花 -1.101958 -0.511866 -0.368004 -0.058035 1.046793 -0.055973 -0.831758 0.331759 -0.554075 -1.200465 -0.206345 -1.633219 0.919014 1.067828 -1.281413 1.100117 0.953500 0.900124 0.137890 -2.334137 -1.111913 0.693530 0.182494 1.136570 0.064778 1.196582 0.672620 -0.672821 -1.727092 -1.053651 -0.129608 0.727087 1.151643 1.424708 -1.150632 0.407194 1.441395 -0.850999 0.730691 1.686269 0.757142 -1.925304 0.336100 -0.224445 -0.338977 0.298520 -1.057728 -0.305481 -0.162236 -1.387994 1.444301 -2.663130 -0.479928 -0.318337 -0.099545 -0.935664 0.686855 -1.124677 -0.813438 1.109663 -0.768692 -1.004783 0.332204 0.269698 -0.536642 1.254002 0.818331 -0.115008 -0.217068 -1.081061 -1.719943 0.066321 -0.828644 0.494948 0.270301 0.970142 1.307987 1.442616 -0.094130 -0.176717 1.262203 -0.171951 1.332826 -0.381843 -0.387223 0.598168 1.366318 -1.205836 3.110595 -0.279218 -0.808490 1.932000 0.649012 -1.236825 -2.257108 -1.253475 -0.380041 -0.238441 0.365697 0.168672 
龙骨 -1.108356 0.561155 1.124127 -0.406454 0.333337 1.478989 0.473818 -0.444063 0.113314 0.576651 -0.012949 0.518247 -0.530995 0.595652 0.089301 0.469579 -0.997961 -0.045564 -0.601619 0.910812 0.030790 -1.107166 0.772318 -1.614167 0.599153 -2.531965 -2.140692 -0.067101 1.471386 -0.438516 0.514035 0.506255 0.374507 1.154221 1.354251 -0.196411 1.389337 -0.400331 0.938293 0.550819 1.164971 0.219832 -1.298194 -0.393375 0.015080 -0.072200 0.335978 -1.393372 -0.421098 0.779346 -0.071003 1.252550 -0.556203 -0.236146 -0.975006 -0.193909 -0.753897 0.542656 -0.291343 -0.217257 0.311151 1.298323 -0.011146 -0.596904 0.381657 0.786393 0.394805 -0.177701 1.113276 0.367324 -0.664339 -0.892375 0.760616 -2.281750 0.870856 0.684342 1.038826 -0.441149 -1.363624 0.548569 -0.963386 0.705683 0.481593 1.327824 0.120376 1.088491 -0.774404 -0.361256 -1.348224 1.009191 -0.907012 1.531660 -1.509575 -1.153690 1.026378 -2.218282 -1.107001 -0.345960 -1.158333 1.294393 
轻粉 -0.146582 0.509884 0.423739 -2.461432 -1.035594 -0.032857 1.105285 0.387751 -0.649432 -0.633544 1.286748 1.740418 0.411541 -2.673094 2.037718 0.249989 1.704309 0.677994 1.533034 1.955486 -1.399499 -1.258160 0.009086 -1.156949 -0.696745 -0.335639 -0.560054 1.006392 0.154933 -0.207319 0.822383 -0.525431 -0.158563 -0.571397 -1.292400 -0.580951 0.262530 -0.483606 -0.501556 -0.081980 -1.168810 -0.186422 0.740911 -1.622332 0.081133 -0.526534 0.182379 0.128183 -2.133618 -1.268346 0.684597 -1.345247 -1.586552 -0.893954 -0.405293 0.302705 0.469465 -0.002492 -0.217606 -0.353254 -0.006680 0.134401 -0.173353 0.565579 0.113263 -0.514210 0.839711 -1.593586 0.132152 -0.233091 0.328722 -0.087814 1.552289 0.438455 -1.166441 1.184079 0.864738 0.450063 -0.685598 -0.761076 -1.664354 -0.520050 0.292586 1.195861 0.644949 1.493017 0.126859 0.268941 0.610230 -0.370452 -2.227627 -1.276625 -0.126125 -0.099623 0.331434 -0.133113 -0.948930 -0.157993 -0.699927 -1.017904 
川大黄 1.439216 1.283321 -1.537153 0.300658 -2.280762 -1.113580 -1.035260 -0.118909 2.030256 -2.105163 0.654302 0.069003 -2.571414 1.249458 -1.787618 -0.179543 2.929578 0.436474 0.831833 1.022537 -1.011746 -0.001750 -0.329589 0.473229 -0.155286 -2.076557 -0.513561 -0.347174 0.542427 0.035542 -1.189355 0.289565 0.169248 -0.409944 -1.384826 1.406529 0.425656 2.450796 0.416353 2.006341 1.274807 0.193165 0.842966 0.467082 -0.150084 0.321710 0.780722 0.683085 0.132540 0.844850 -0.039596 -0.869473 0.549964 0.959125 1.305890 0.795017 0.524679 0.064289 0.639149 0.464906 1.467535 -2.432396 0.890796 0.331187 -1.188470 1.044451 -0.343497 -0.577125 -0.853435 0.205719 0.823155 1.081410 0.990972 -0.260011 0.226526 2.324835 1.373869 -2.908232 -0.757973 2.051014 0.854202 1.315420 0.004906 -0.217579 0.607542 0.360446 0.653384 -0.176949 -0.889954 -1.015694 -2.128565 -0.793224 -0.945706 0.316089 0.087958 -1.569280 -1.755863 1.030250 0.284917 0.250795 
菟丝子 0.910208 0.791792 0.965078 1.200290 -0.201346 -0.133790 1.144885 0.647805 -1.089852 0.134890 -1.310722 1.010868 0.108026 0.483376 -1.395592 -0.361854 -0.030660 1.037703 -0.085421 0.175561 1.396894 0.636313 -0.548571 0.467814 -1.169646 0.825118 -2.845797 -1.248150 2.194557 -0.529671 0.659649 -0.364005 1.906978 -0.336214 -0.378094 -0.839310 0.183140 0.433988 0.936799 0.278496 -0.675210 1.383763 1.009329 0.151295 1.046973 -0.815775 0.177735 -1.293696 -0.752240 1.911102 0.649311 1.057443 2.043058 0.104265 -0.535804 -0.009591 0.441084 -0.101302 0.505919 -0.398075 -1.536098 -0.224317 -2.003975 -2.208933 -0.743432 1.924975 -0.593963 -0.889273 -0.621069 -0.606590 -1.468829 -1.048634 -1.063844 1.016276 1.238359 -1.448384 -1.347782 -1.419634 -1.377379 0.516958 -0.595090 1.623825 0.745789 -0.164924 0.218820 1.504546 -0.876745 0.633554 -0.136746 0.156730 0.408778 1.307229 0.061212 -1.684636 0.954805 -1.115669 0.283367 -1.414965 -0.857249 -2.424145 
贝母 -1.113058 1.214451 1.666294 0.568889 0.229612 1.568714 -1.004987 -0.125736 0.406469 -0.040485 -0.637820 0.711824 0.729157 0.269181 -0.546123 -0.110641 1.616533 0.601599 -0.182989 -1.300431 0.182954 0.105799 1.212596 1.809494 0.984127 -2.036488 1.393061 -0.610274 0.639586 -0.121113 -0.545846 0.666757 -0.069560 1.576882 -0.764565 1.448491 0.746142 -0.073830 -2.078697 0.262246 -0.487060 1.161319 0.900147 0.158034 -1.412173 -0.484737 1.054528 0.540795 -0.257345 -0.166313 -0.161847 -0.364524 0.449320 0.760089 1.130501 0.503555 0.507678 0.252817 0.308224 1.176153 1.134202 -2.569358 0.689336 0.345111 -0.480701 0.170096 1.037506 -0.852704 -0.170004 0.009543 -0.838110 -2.232584 -0.376656 0.665423 0.200883 -1.420822 -0.383916 0.151839 -0.489206 2.424089 -0.406195 1.906948 -0.072734 1.114349 -0.392566 -0.321318 0.838832 -0.705117 -0.895641 -0.223362 0.186969 -0.409193 0.771864 1.256012 1.730367 -0.212560 -0.279227 -0.018775 0.637572 0.406537 
鳖甲 0.982935 1.014301 3.033084 0.329356 1.266153 0.396986 -0.705472 -1.362696 0.508614 0.885856 -0.757213 0.370393 -0.897928 0.647803 -2.070446 -0.248391 1.274639 0.074532 -0.111713 0.107511 -1.947025 0.315088 1.302224 0.974978 0.351106 -0.159972 1.051215 -1.178896 2.074151 0.937532 -1.927968 0.265960 -1.873914 -0.797324 1.875707 0.331018 0.156926 0.685340 -0.919490 1.677172 0.226115 -0.650705 -0.405676 -0.111887 -0.624914 0.669949 -0.556804 -1.148720 1.521836 -0.110985 0.656695 0.074369 0.967816 -0.874150 1.361590 -0.620223 -1.921502 0.320269 -0.259880 1.083695 -0.265114 -1.133908 0.028216 0.756928 0.642709 1.553941 -2.526448 -0.098441 -1.348788 -0.400663 -1.291217 0.353132 -2.040721 -0.926781 -0.169207 0.067544 -0.068704 -1.175010 0.217134 1.237577 1.478225 1.788954 1.047590 0.965488 1.115484 -0.327280 -0.029821 -0.458888 -0.833457 1.426177 -1.959023 -1.808975 -0.894784 -1.431558 0.175517 -1.476333 0.824547 0.883250 0.830676 0.715080 
白附子 -0.815464 0.854755 -1.067376 0.171333 -1.188062 0.683386 1.953159 -0.520077 -0.861302 -1.023105 1.062853 -0.084847 -0.553568 2.787181 0.495417 -0.131836 0.659567 0.173962 0.335771 0.064812 0.232932 1.208979 1.118376 -0.850741 -0.311868 -0.551871 0.472493 -0.367181 0.150894 -0.709124 1.312348 -1.063052 -0.004136 1.055251 0.023000 -0.643686 -1.113804 -0.956555 0.149156 0.247380 0.877774 0.131299 -1.232583 1.043618 -0.096813 1.033828 1.231556 -1.314316 0.194981 -0.026668 0.142496 -1.960450 1.675632 1.125662 0.600138 0.506541 0.202985 -1.508154 0.433844 0.765411 -1.006447 -0.732098 -1.435174 0.355826 -0.517249 -0.636802 -0.204993 0.523890 -0.500341 0.066695 -0.217230 2.472603 -0.506391 -0.607343 1.093355 -1.286517 1.746029 -0.557392 0.013894 0.411257 0.090556 0.939738 -1.624569 -0.813288 0.943054 0.090072 1.729410 0.943911 -1.050775 -0.114812 1.464555 -0.884446 -0.079170 -0.145645 1.929961 -0.091213 0.107062 -0.076286 -1.348135 -0.340385 
葛根 -0.244348 -0.547183 -0.185243 0.163529 0.224429 -0.446197 -1.436631 0.015621 1.420370 -0.073953 -0.100097 -1.527393 -0.468573 1.689518 -0.756660 -0.733573 1.602976 0.588747 0.826018 -0.652041 -0.720723 -0.256681 0.736041 1.232297 0.507718 0.107717 1.449036 -0.048407 -0.166814 -0.650705 0.109400 0.927451 -1.233806 -0.966504 -0.045828 0.555776 -0.650230 0.262295 0.150809 -0.253557 -0.204176 -0.706142 -1.294286 -0.479389 0.448189 0.014514 1.013706 0.329574 -0.170873 1.602187 0.359665 -0.778938 1.145529 0.934168 -0.713818 -1.271327 1.150979 -0.639893 0.928113 0.461468 -0.063483 -1.184064 -0.437023 1.063066 -0.875202 0.589636 0.599685 0.782893 -0.510646 0.745567 0.716267 0.741177 -0.982605 -0.080885 0.313366 -0.400698 0.610678 1.322451 0.733830 0.660254 0.366122 1.238010 0.364728 0.802058 0.061232 -0.740990 -0.618596 -0.686051 -0.445115 -0.102157 0.976695 0.133718 -0.839855 0.578126 -0.323988 0.326393 -0.062773 1.287081 0.320619 -0.118332 
全蝎 0.023377 0.691257 -0.414027 -1.172594 -2.491916 0.196953 1.018606 1.503685 -1.266326 0.037372 0.282710 -0.066457 -0.653925 1.299837 0.894557 -0.121907 -0.105306 2.048839 -0.903492 0.883329 0.401636 1.162193 0.954251 -0.208117 0.313287 -0.466033 0.988643 -0.137125 -1.368065 0.258359 2.701621 0.537672 -0.212103 0.772178 2.206401 0.334938 -0.336128 0.133370 0.564307 1.005244 0.121573 -0.288970 0.322134 -0.695868 1.589453 0.462959 0.502600 1.031225 -0.926463 0.218721 -0.074391 -3.619495 -0.317071 1.440064 -0.583852 0.462422 0.099183 -0.466789 0.282654 0.000662 -1.470663 -0.720144 -0.205024 -0.041040 -1.416760 -0.012600 1.241464 -0.617087 0.434726 -0.781119 -2.303632 1.923889 -2.125854 -0.431896 1.892309 2.144622 0.287674 1.012014 1.047713 0.514591 -0.863147 0.639998 -0.001652 0.226102 -0.537903 -0.115884 0.845247 -0.284959 -0.802394 -0.916639 -0.644637 0.719616 1.388924 0.201321 0.730721 -0.201477 0.484505 0.484971 -1.076738 0.883514 
白矾 2.342122 1.603849 -0.657536 -1.518660 -1.199894 0.511395 0.803798 -0.099197 0.059556 -0.007190 0.076739 1.817430 -1.020076 -0.596816 0.885497 -0.525139 0.327575 -0.258480 -0.020996 0.767005 -0.641048 -0.122452 -0.039820 -0.227697 0.764305 -0.647489 -0.527028 -0.563744 0.757904 -0.253240 -0.224929 -1.481408 -0.303276 -0.861070 -0.081154 0.090853 -0.570484 -0.166824 -0.689157 0.082962 -0.184544 0.490122 -0.150001 -0.331625 0.156052 -1.296856 -0.042090 -0.448430 -0.193813 0.029876 0.022799 -0.384573 -0.510612 0.446541 0.500807 1.119598 1.170085 -0.704610 -0.218118 -1.093251 0.173705 0.384582 0.327738 -0.867092 -0.391170 -1.170078 -0.520029 -1.335050 0.093687 1.060099 1.204091 0.414407 0.382887 -0.059830 -1.122549 -0.208013 -0.202947 -0.223906 -1.118878 0.367846 -0.162622 0.483029 -0.511402 -0.073232 0.125293 0.971875 -0.350569 0.454395 0.288177 -0.551786 0.207560 -0.627306 -0.461995 0.164769 0.655811 0.052716 0.005764 0.556309 -1.744968 -0.081463 
秦艽 0.460364 0.671227 0.609907 1.403716 0.959084 -0.612556 -1.094237 -0.471336 -0.757660 -0.790433 -1.259372 -0.643102 -1.726693 1.571431 -1.938152 -0.966190 1.073441 -0.228430 -0.601422 -1.530526 0.766246 0.623374 1.249912 1.427880 0.043732 0.265740 1.021908 -0.177143 0.128929 -1.334368 0.344821 0.117816 -0.484503 -0.739479 -0.257359 0.808569 -1.367198 0.123561 0.563996 0.414811 0.211091 -1.309280 0.839065 -1.025682 0.442711 0.327675 0.126526 -1.440314 0.148668 1.507719 -0.066844 -0.284270 2.325197 -0.041000 -0.446735 0.429387 -0.003533 0.036035 0.405138 0.275179 -1.472026 -1.430724 -0.091546 -0.001895 -0.960190 1.138767 -0.168539 0.342045 -0.721333 0.344345 -0.740081 -0.656550 -1.018584 0.608639 1.026988 1.126891 -0.015729 0.638758 0.780360 -0.034452 0.141910 0.737219 -0.698458 0.057559 -0.195986 -0.144660 -0.525997 0.887355 -0.397985 -0.759560 0.103306 -0.325194 -0.605216 -0.910311 -0.637758 -0.496284 -1.206923 0.280601 0.495761 1.660514 
丹皮 -0.588517 -2.273753 1.186690 0.604447 1.103478 1.042550 -1.725049 -0.191730 -0.403811 -0.960314 -1.744007 -1.947405 0.844975 2.924736 -2.284231 -0.493480 0.759382 2.088325 1.160952 -1.812035 -1.251112 0.837480 -0.282616 1.645518 -0.184715 -0.206003 -1.107442 -0.205911 -0.287407 0.963267 0.866859 -0.943295 -0.330836 0.654597 0.674493 -0.146768 -0.298389 -0.286885 -1.942444 -0.614472 -0.561977 -0.748327 0.969057 -0.789264 0.404270 0.462149 -1.482890 0.966634 -0.312933 1.512050 1.287339 0.602512 -0.337694 -1.472070 -0.203904 -1.466271 1.345119 0.542775 1.123659 0.983656 0.218413 -0.240189 -1.341228 0.028508 0.515924 0.276920 0.487864 -1.023855 1.336607 -0.851837 -2.065053 -0.319585 1.521370 1.073497 1.245260 0.646238 -1.132639 0.707048 -1.429923 0.015532 0.351270 0.352274 -0.618884 1.359825 0.198936 0.729306 1.183117 0.050694 1.535958 -0.091454 0.210183 -0.665251 0.255469 -0.068816 -1.183855 0.191822 -0.383528 1.679358 0.691262 0.121477 
冰片 1.445938 2.325257 0.373363 -1.537489 -0.024989 -2.040188 1.764796 -0.520610 -2.004226 -0.005621 0.540686 0.703776 2.349841 -1.273686 0.501722 1.379346 -0.300979 0.461321 0.472549 1.355900 -0.828781 0.079459 1.306073 -0.874328 0.202798 0.818365 -0.703654 0.736870 -0.343082 -1.387918 -0.594546 -0.738105 0.430671 2.153532 1.148645 -0.681891 -0.051891 -1.237391 -0.733255 0.341792 -1.072459 -1.739873 -0.285449 -1.414895 0.962655 1.242823 -0.033613 1.425852 0.124951 -0.961425 -0.225188 -0.782160 -2.372690 0.115388 -0.271430 -1.554298 0.572122 0.845107 1.196542 -0.181953 1.292860 0.770053 0.315764 0.257432 0.967748 2.180007 2.040569 0.339644 2.380136 0.580075 -0.525877 1.506519 -0.190021 -2.157595 -0.528882 1.209552 -0.455516 0.565544 0.319274 0.151520 -0.918431 0.046290 0.175310 -0.786661 -1.246486 0.030043 -0.207311 -0.721749 1.601842 -1.306382 -0.300978 -1.491085 0.636491 1.333630 -0.099945 -1.292597 -0.081666 -0.055302 -0.098092 -1.589808 
肉豆蔻 -0.678734 -0.024887 0.479529 0.848217 -0.939288 1.344862 0.426062 0.121550 1.651594 1.502155 -0.469005 1.723086 -0.245759 -0.080339 1.423408 1.378055 0.234063 -0.886725 0.285223 2.249813 -0.514701 0.522899 1.766773 -0.292031 0.592219 0.687374 -0.054753 0.937508 0.864024 -0.997833 -0.042645 -0.694570 -1.093930 1.440437 2.101252 0.612924 0.012108 0.261184 0.532121 -0.144646 0.786907 0.560545 -1.041983 0.918102 0.193624 0.364803 -0.982484 0.037218 1.034957 -0.182030 0.537443 -0.792365 0.455255 0.328691 -0.903846 0.107121 -0.015846 0.866693 -0.407137 0.407362 -0.451023 0.643596 1.236965 -1.113145 -0.270044 0.352954 -1.897325 -1.169161 -0.340286 0.070052 -0.324421 0.561354 -0.281017 -0.214377 0.583117 0.148443 0.222787 -1.403429 -0.025192 1.122017 0.286414 0.243794 0.449264 0.814919 0.699248 0.122703 0.381672 2.058848 -2.339975 1.425305 -1.004710 1.177883 -1.629787 -0.496631 -0.558790 0.361074 -0.239353 -0.501800 -0.953767 -2.298363 
补骨脂 0.109902 -0.220126 0.648881 -0.514105 0.040637 0.837679 1.605110 1.146496 -1.185225 0.486137 -1.824775 0.507592 0.983448 0.683080 -0.193752 0.954015 -0.450112 0.109010 -1.008789 1.074749 -0.106380 2.115825 -0.058804 -0.885698 -1.061858 2.676111 -1.234877 -0.263080 -0.400231 -0.808496 0.915265 1.892922 0.050665 -0.195298 0.956158 -0.160807 0.589901 0.390513 0.690395 0.834645 0.078251 1.126861 0.470543 0.169952 -0.390972 -0.109399 -2.442014 -1.118749 -0.682486 1.123175 1.693723 1.486775 2.277020 -0.933009 0.128102 0.862726 -0.625719 0.011444 0.390361 0.195399 -1.448823 -0.450103 -0.950955 -2.337832 0.062161 1.467391 -1.980983 -0.306715 -0.481567 -0.963881 -1.265574 -0.556323 -1.243921 -0.052866 -1.054991 -0.555921 -0.873178 -0.696560 -0.948685 -0.867180 -0.930546 1.343268 -0.683297 1.137701 -0.127088 0.386299 -0.708715 -0.251654 -0.804854 1.437132 -0.128953 0.696548 -0.307488 -2.471699 0.925003 -0.020999 -0.025227 0.665075 -1.008525 -1.356525 
天南星 0.916773 0.843005 -0.442389 0.389229 -1.037038 1.335982 0.361508 1.111886 -2.714855 -1.219052 1.006029 0.411279 -1.500594 1.445505 0.667150 0.469423 -0.127828 -0.087802 0.576536 0.638521 -0.701867 2.437100 1.602986 0.026121 0.808514 -1.400673 0.619712 0.404956 -0.012086 -0.046743 1.958133 -0.398269 -0.786711 -0.953130 -0.313280 -0.102997 -1.240130 0.644320 1.178518 -0.791881 0.549275 0.203638 -0.507071 -1.420902 0.335718 0.614718 -0.918713 0.028570 0.316777 0.855032 -0.711105 -2.470869 -0.137017 0.841435 0.569584 2.190059 0.268848 -1.780238 0.619548 0.797625 -1.129284 -0.655634 0.599271 0.295630 -0.814649 -1.429922 -0.352499 0.856773 1.232903 2.143779 0.217360 1.666269 -1.410957 -1.402187 -0.437091 -1.176254 0.948138 -0.273796 0.212755 -1.678419 1.334628 0.504631 -2.592065 1.131338 0.296985 -0.602713 1.987526 1.981562 -1.629872 0.208608 1.103379 0.433373 -0.258317 -0.382201 -0.146452 0.600696 0.832924 0.512573 -1.098312 -0.063915 
续断 -1.711833 -0.032907 0.174391 2.377129 0.376324 0.530380 1.242335 0.124039 -0.441496 -1.030431 -0.896974 -0.038783 -0.676549 1.392467 -1.669606 0.088458 0.386671 0.466339 0.046562 0.009998 0.845867 1.308125 0.992101 0.742217 0.182246 0.852710 -1.468861 -0.662790 0.065963 -1.304989 1.640944 0.174089 0.846450 1.388545 -1.479438 0.364075 -1.062055 1.093768 0.995115 -0.848930 0.094551 -1.388207 -0.417571 1.323201 0.172729 0.611758 -0.198323 -1.913485 -0.231075 0.656666 -0.942860 2.072825 0.827916 -0.776508 -0.012826 -2.191983 -0.160059 0.238808 0.387839 0.758577 -0.899743 0.329155 0.005080 -2.095037 -0.035261 -0.488403 -0.858860 0.160007 -0.549779 -0.470044 -0.644254 0.454549 -0.347958 0.352738 0.085643 0.105606 0.583725 0.630282 -0.100492 -0.615812 0.629109 1.759851 0.261766 0.698978 -0.437722 1.267027 -1.029033 0.010576 0.661766 1.465162 0.669079 1.470050 0.125427 -0.993969 1.263701 -0.681365 -1.020438 -0.536746 -0.531445 -0.304545 
石斛 -0.614169 -0.419362 0.853060 1.886366 -0.165046 -0.485192 0.857314 0.066891 -0.206275 1.134513 -0.740542 -1.445981 -0.063839 2.577629 -1.885227 0.132880 0.312250 0.393856 0.652060 -0.435759 0.228239 1.521675 0.426903 1.599794 0.495401 0.241876 -0.901296 -0.085920 1.246139 -0.932286 -0.014806 -0.502071 2.412611 -0.508728 -0.546583 0.162220 -0.345733 0.032648 0.444141 0.090776 1.035460 0.767150 -0.693905 -0.146616 1.449725 0.257668 1.082940 -0.631529 -1.324944 1.816353 -0.129591 0.888264 1.307927 -0.661849 -1.083234 -1.027845 -0.487940 -0.431370 0.526794 -0.299938 0.690496 -1.232941 -0.577401 -0.225688 -0.923505 1.388096 -1.329271 0.714500 -0.194779 0.555244 -0.380859 0.012177 0.070182 -0.164955 1.285180 -0.556217 -0.428287 -1.259627 0.020943 0.348326 -0.330819 1.243367 0.490255 -0.272620 0.321975 0.226701 0.436969 0.867063 -0.498845 0.546614 0.527888 0.687974 -0.052751 -1.523819 0.575359 -0.690719 -1.012886 -0.168097 -1.499277 -0.968770 
